{"type":"LSTM","options":{"inputSize":38,"inputRange":38,"hiddenLayers":[20,20],"outputSize":38,"decayRate":0.999,"smoothEps":1e-8,"regc":0.000001,"clipval":5,"maxPredictionLength":100,"dataFormatter":{"indexTable":{"h":0,"i":1,"H":2,"e":3,"l":4,"o":5," ":6,"t":7,"r":8,"!":9,"w":10,"c":11,"a":12,"n":13,"I":14,"s":15,"y":16,"u":17,"?":18,"m":19,"p":20,"j":21,"b":22,",":23,"k":24,"f":25,"g":26,"C":27,"B":28,"v":29,".":30,"G":31,"d":32,"S":33,"T":34,"stop-input":35,"start-output":36,"unrecognized":37},"characterTable":{"0":"h","1":"i","2":"H","3":"e","4":"l","5":"o","6":" ","7":"t","8":"r","9":"!","10":"w","11":"c","12":"a","13":"n","14":"I","15":"s","16":"y","17":"u","18":"?","19":"m","20":"p","21":"j","22":"b","23":",","24":"k","25":"f","26":"g","27":"C","28":"B","29":"v","30":".","31":"G","32":"d","33":"S","34":"T","35":null,"36":null,"37":null},"values":[{"input":"hi","output":"Hello there!"},{"input":"hello","output":"Hi! How can I assist you?"},{"input":"hey","output":"Hey! How may I help you?"},{"input":"how are you","output":"I am just a bot, but thanks for asking!"},{"input":"what is your name","output":"I am ChatBot, your virtual assistant."},{"input":"bye","output":"Goodbye! Have a great day!"},{"input":"see you later","output":"See you later! Take care."}],"characters":["h","i","H","e","l","o"," ","t","r","!","w","c","a","n","I","s","y","u","?","m","p","j","b",",","k","f","g","C","B","v",".","G","d","S","T","stop-input","start-output","unrecognized"],"specialIndexes":[35,36,37]}},"trainOpts":{"iterations":20000,"errorThresh":0.005,"log":true,"logPeriod":10,"learningRate":0.01,"callbackPeriod":10,"timeout":"Infinity"},"input":{"rows":39,"columns":38,"weights":[0.2098311483860016,-0.7861073017120361,1.471977949142456,-1.1992957592010498,1.769218921661377,-0.32265499234199524,-2.2203142642974854,-1.2927863597869873,-0.4468620717525482,0.050356294959783554,0.426211953163147,-0.7527206540107727,-0.7663840055465698,-0.349756121635437,1.0221412181854248,-1.2868722677230835,-0.04371987283229828,-2.7948381900787354,-0.5174633264541626,1.8397756814956665,0.6160458326339722,-0.40500369668006897,4.473390579223633,-1.9881535768508911,1.0036158561706543,1.478451132774353,-1.62687087059021,1.1650365591049194,-2.008044481277466,-1.4911154508590698,-1.4626082181930542,1.0233935117721558,0.01722872443497181,-2.046727180480957,1.1638401746749878,1.031633734703064,2.3144407272338867,-4.092936038970947,0.39418095350265503,2.9159553050994873,1.8864153623580933,-0.07025093585252762,-3.7269015312194824,-0.9713855385780334,-0.6674050092697144,1.3844842910766602,1.0609089136123657,-0.06988263875246048,0.9391897320747375,-2.7221102714538574,0.3854374289512634,-0.4918332099914551,-0.3306131064891815,-5.481619358062744,-4.260701656341553,2.8286843299865723,-0.4397714138031006,-2.6995420455932617,-1.8781650066375732,-2.9404964447021484,-2.885946750640869,2.4085073471069336,-1.4913243055343628,-0.5996586084365845,1.9001966714859009,0.8364402651786804,0.5928592681884766,2.2292768955230713,-3.459808826446533,1.495837926864624,-2.6518807411193848,2.949188470840454,-5.044309616088867,2.744854688644409,0.1469866782426834,-3.011610984802246,-3.2544472217559814,-5.542835712432861,-8.402115821838379,-2.9050092697143555,3.49106502532959,1.7997807264328003,3.055124282836914,1.9607009887695312,3.3837411403656006,-1.0498836040496826,0.7682526707649231,-4.477048397064209,-0.7366253733634949,6.61423397064209,-3.532477378845215,-0.05059219151735306,-0.8448595404624939,3.210991621017456,-1.7496479749679565,0.8966253995895386,4.294569492340088,-6.228242874145508,-1.338966727256775,-0.7502202987670898,-0.44197675585746765,-0.4128844738006592,-0.44979971647262573,1.6098220348358154,-3.3297924995422363,-0.9202297925949097,-1.086144208908081,-0.2826579809188843,-2.060824155807495,-1.6901662349700928,-1.3367176055908203,-5.646852016448975,-5.83867883682251,3.210117816925049,2.6080362796783447,3.5254478454589844,0.751715362071991,1.2410155534744263,0.5680911540985107,0.93244469165802,-0.9349572062492371,-0.4789265990257263,0.9103407263755798,1.8901921510696411,-1.9925615787506104,-1.21632981300354,-4.632721900939941,-0.4303792119026184,-1.47239089012146,-0.8281386494636536,-1.1713016033172607,-0.44513070583343506,0.2121056467294693,4.746098041534424,1.1061683893203735,0.0418303981423378,2.495168685913086,-3.047131299972534,-0.8104971051216125,-2.778740644454956,-4.852705955505371,3.475058078765869,-3.559282064437866,-0.35715195536613464,-1.9188241958618164,0.44305065274238586,1.3223388195037842,1.8692198991775513,-2.0243992805480957,2.7658498287200928,5.009764194488525,-2.1533594131469727,-1.492879033088684,-0.1827278733253479,1.1864358186721802,0.25576943159103394,1.9527196884155273,0.37723293900489807,-0.41133058071136475,-2.1409308910369873,-0.47326037287712097,1.1512352228164673,-2.8460352420806885,-0.30326616764068604,-0.17039275169372559,-2.60196852684021,-1.2666821479797363,-0.7962647080421448,1.7926982641220093,-1.9080560207366943,0.4727482497692108,3.5429868698120117,0.5743386745452881,-0.1595759391784668,1.5714191198349,-3.0817830562591553,0.6449424624443054,-1.5132917165756226,0.10384508967399597,1.5698254108428955,-0.8455608487129211,-1.7289661169052124,-0.4932921230792999,-1.660359263420105,0.3867547810077667,-1.5576847791671753,-2.3954720497131348,1.174338936805725,3.9975929260253906,0.013383852317929268,1.9714949131011963,1.9694069623947144,-1.2011792659759521,0.9567152261734009,-0.13344469666481018,-3.1248855590820312,2.185570240020752,-0.23533034324645996,0.00602408591657877,-2.343118667602539,1.2204238176345825,1.702280044555664,2.0977349281311035,-2.5704193115234375,-4.350180149078369,0.4484007656574249,2.1508777141571045,-1.7514568567276,-0.7851755619049072,-2.5512664318084717,-0.9991603493690491,3.061957597732544,1.5110645294189453,1.4894288778305054,3.405695676803589,-0.40410059690475464,4.373692989349365,-3.8740599155426025,0.21528050303459167,-2.5951333045959473,0.2870367467403412,1.715143084526062,0.10392157733440399,-0.4167746603488922,-2.2772862911224365,-0.0776120126247406,-1.388718843460083,-0.4903816878795624,3.0435361862182617,2.5288994312286377,1.1247237920761108,0.9622705578804016,-1.9586256742477417,0.536101222038269,1.3528321981430054,-2.6243860721588135,-3.6013712882995605,-2.5648953914642334,1.6586792469024658,-0.1850423365831375,0.40853360295295715,0.9029328227043152,0.6841959357261658,-0.9196791648864746,-2.6003782749176025,-1.5422706604003906,-0.7522218227386475,-2.3295068740844727,-1.212489366531372,0.5646501779556274,4.135238170623779,1.7267993688583374,-1.4993237257003784,2.4258687496185303,-0.14748512208461761,0.28097987174987793,-1.1630382537841797,-1.3673462867736816,0.6386709809303284,-0.5060797333717346,-6.186345100402832,-1.3553580045700073,0.9078212380409241,1.6396973133087158,2.451387882232666,-0.7206630110740662,2.158146381378174,1.8872321844100952,1.4253554344177246,-1.8067415952682495,-0.3317958414554596,-0.2758880853652954,-0.44483867287635803,0.3489760160446167,0.6661229729652405,-3.128870725631714,1.1390736103057861,2.667327404022217,0.1515381783246994,-0.06362544000148773,-1.1957011222839355,3.5410633087158203,-0.4761936366558075,0.25043898820877075,0.9181222319602966,-1.825951337814331,0.42341527342796326,0.5740313529968262,0.6702563166618347,2.0380918979644775,0.6099053025245667,1.291202425956726,-1.825358271598816,-1.8127567768096924,-0.4621642827987671,-0.777689516544342,-0.111117884516716,2.807241678237915,0.8573400378227234,-0.5171374082565308,4.923284530639648,-4.948714733123779,-1.4571863412857056,-1.3326612710952759,0.23027051985263824,0.3488016128540039,2.0295722484588623,0.6422158479690552,-1.5724860429763794,1.633973240852356,-2.8650879859924316,1.561797022819519,-3.236751079559326,1.3974560499191284,-1.8631361722946167,3.773702621459961,-0.6291719079017639,-2.9864320755004883,-2.3347527980804443,-0.05770367011427879,-0.011682523414492607,-0.5864365696907043,0.3593820333480835,-0.5237268805503845,-2.2312419414520264,1.8487472534179688,0.08524077385663986,-1.0186654329299927,-3.045961380004883,0.2447233349084854,-0.8221515417098999,-0.675154983997345,-0.7009179592132568,1.2084954977035522,3.6832633018493652,-2.5166423320770264,-0.27638059854507446,1.8236825466156006,1.7566627264022827,1.6838815212249756,-1.1510305404663086,0.5493606328964233,-1.0421844720840454,-0.37773242592811584,-5.122434139251709,1.2656906843185425,-2.4948995113372803,-1.5686410665512085,0.7102910280227661,0.7726795077323914,1.3832544088363647,-3.7826077938079834,3.0743467807769775,-1.4034192562103271,-2.5828659534454346,1.2525297403335571,2.2419419288635254,2.147170305252075,0.6743468642234802,1.9092389345169067,2.1160690784454346,0.8465700149536133,-0.08532891422510147,1.7030397653579712,-2.3755147457122803,1.5472397804260254,-1.3671560287475586,2.4142560958862305,-0.15966179966926575,-1.0706106424331665,3.76094913482666,1.504616618156433,-5.747337341308594,3.4045963287353516,1.7180516719818115,-0.15325134992599487,-2.0939433574676514,-0.752002477645874,-1.9657373428344727,-5.571725368499756,-1.7042418718338013,1.9661701917648315,-0.5521619915962219,-1.613464117050171,-1.8081707954406738,0.23391392827033997,-2.6959850788116455,0.9659645557403564,-0.2723333239555359,0.9907021522521973,4.0631914138793945,2.5574734210968018,-3.757488965988159,5.238790512084961,3.262099266052246,4.2902655601501465,0.5827316641807556,1.977912187576294,-1.85130774974823,-3.000044822692871,-4.223369598388672,2.049060583114624,2.4397387504577637,1.8135485649108887,-0.6739007234573364,-3.163459062576294,-4.230545997619629,0.3094818592071533,0.3179389238357544,-1.766391396522522,-0.32180872559547424,-0.6607373356819153,-3.9151408672332764,2.4568066596984863,1.5746327638626099,1.9688971042633057,0.08414504677057266,3.4863767623901367,-3.1312410831451416,-0.15741711854934692,-1.9267258644104004,3.58856201171875,-4.8877949714660645,-2.1292614936828613,0.9439723491668701,1.768153429031372,3.9434680938720703,-3.002105474472046,0.1345660388469696,-0.7037268280982971,-3.287235736846924,1.6696984767913818,7.23583459854126,1.2003933191299438,2.609860420227051,-4.891010284423828,-0.02137160860002041,0.9058496356010437,1.9647462368011475,1.457184910774231,-2.1032683849334717,2.9662904739379883,-0.5138607621192932,-0.30999043583869934,-1.572714924812317,-2.8234214782714844,3.981342315673828,2.035067319869995,-5.903524398803711,0.2379201352596283,1.5614222288131714,5.608449459075928,-0.3566848337650299,-1.2031476497650146,1.9207508563995361,-2.2951037883758545,3.3347830772399902,0.46670401096343994,0.3116891086101532,1.8803757429122925,1.3997395038604736,-2.3982603549957275,4.963580131530762,0.857631266117096,6.577969551086426,2.9878554344177246,-4.756148815155029,-6.085447311401367,1.2448289394378662,-2.2443435192108154,2.1407525539398193,-4.336694717407227,1.2005902528762817,4.068602085113525,2.17531681060791,3.504924774169922,-2.6914780139923096,-3.567897319793701,-1.5818767547607422,-2.9994261264801025,-2.999541759490967,-2.348196029663086,3.424347400665283,2.2642202377319336,0.6923260688781738,5.153575897216797,0.6421265006065369,-0.4683612883090973,-2.3795647621154785,0.845683753490448,-3.136444091796875,4.0058159828186035,-0.12571942806243896,1.9948756694793701,1.083775520324707,3.5470471382141113,1.3952223062515259,0.22966249287128448,-0.29874658584594727,0.3059454560279846,-0.8632007241249084,0.3797002136707306,-5.321051120758057,-0.1950598806142807,0.4045597314834595,-1.9730106592178345,1.2893335819244385,-1.2165738344192505,-2.929086208343506,0.6925788521766663,-2.884471893310547,-2.5198943614959717,-3.6431756019592285,-4.6249799728393555,-7.625611305236816,0.4580605924129486,1.936564326286316,0.18092115223407745,0.3098871111869812,-1.047330617904663,-0.943926990032196,-0.07510825246572495,-1.0656160116195679,-1.1375024318695068,-0.2798635959625244,0.26806753873825073,-3.198756217956543,0.12800627946853638,0.5828397274017334,1.0686681270599365,2.731004476547241,-1.3638310432434082,2.1811113357543945,7.410895824432373,1.4766440391540527,-3.3045058250427246,5.410073757171631,0.7688052654266357,-2.718405246734619,-0.5965484380722046,1.0261621475219727,4.29414701461792,-2.678835153579712,1.9038912057876587,-2.3973138332366943,-0.48473358154296875,2.6508076190948486,0.23728911578655243,5.702451705932617,1.7982637882232666,-2.280808210372925,2.6706902980804443,-4.138032913208008,2.054943561553955,-2.709800958633423,-3.625898838043213,1.217665433883667,-4.498294353485107,-3.1972649097442627,0.9506368041038513,-0.7259592413902283,-1.6582807302474976,4.660881519317627,3.0004336833953857,-3.904067277908325,3.1013429164886475,6.542975425720215,3.7917187213897705,-2.8210580348968506,4.140919208526611,-4.01908016204834,1.1375645399093628,-2.4936256408691406,0.7573896050453186,-2.4940731525421143,-4.069263458251953,-0.4766545593738556,2.561974048614502,0.014589915983378887,3.723623037338257,5.381169319152832,2.603874444961548,-4.157502174377441,5.319549560546875,3.0004775524139404,2.0870869159698486,0.5527092814445496,2.0499303340911865,-3.0688562393188477,-1.7082610130310059,-0.19068075716495514,2.197239637374878,-0.22179746627807617,2.5263831615448,0.7136684060096741,-3.8648624420166016,1.0854705572128296,2.310948610305786,-0.6243504285812378,-2.2679948806762695,4.936491012573242,-0.6118171215057373,0.8568449020385742,4.334633827209473,0.9002022743225098,1.7841947078704834,-3.652448892593384,7.718980312347412,-0.21194234490394592,1.042864203453064,2.0134999752044678,4.13628625869751,0.3408038020133972,0.7236802577972412,-1.3715521097183228,-1.7837722301483154,-1.591709017753601,-0.37202319502830505,-0.439399778842926,3.1920197010040283,-3.7915635108947754,0.8364747762680054,1.5251094102859497,1.7619847059249878,0.47745639085769653,-5.490804672241211,-3.8639047145843506,0.9159471988677979,-2.3705930709838867,2.4204535484313965,2.803725242614746,-0.07279691100120544,0.8054054975509644,-3.718766212463379,-2.0262515544891357,3.2160255908966064,0.6989687085151672,-2.2594807147979736,3.8955156803131104,-5.439657211303711,-2.9301137924194336,1.5212396383285522,-0.6465462446212769,2.5861704349517822,4.2890448570251465,2.692218542098999,4.043954372406006,-0.27325430512428284,1.1145391464233398,1.4574816226959229,0.08212221413850784,-1.730517864227295,-0.06563844531774521,-2.4345695972442627,-1.2658956050872803,-1.9526153802871704,-2.9237263202667236,-0.07469093054533005,-1.5265320539474487,-1.633167028427124,-1.0524961948394775,-3.3930137157440186,-1.3931574821472168,2.179928779602051,1.85111665725708,-0.9466992020606995,-3.0458147525787354,-3.7575888633728027,0.39046138525009155,-0.22248201072216034,-2.787933588027954,0.08609410375356674,0.5387347936630249,2.7445359230041504,-1.9566187858581543,4.55701208114624,-3.3559796810150146,-0.5962293744087219,-1.1993366479873657,0.2836471498012543,0.9067215323448181,1.404994010925293,2.9230566024780273,-3.7558016777038574,-1.7688289880752563,-1.2214014530181885,2.2553913593292236,3.3781585693359375,-1.6065434217453003,-0.15980342030525208,-4.592520236968994,0.2537490129470825,0.002844239352270961,2.2081308364868164,-6.23241662979126,3.771902084350586,-0.6457020044326782,0.5859473943710327,-1.810662865638733,-0.25468847155570984,-1.088800072669983,-0.9671997427940369,0.1673414707183838,1.6055461168289185,1.307163953781128,-1.6521329879760742,4.968105792999268,-1.200843334197998,-3.391331911087036,-0.05685994774103165,-0.7274256348609924,-0.6029765009880066,-3.0982649326324463,0.4878499209880829,2.637333631515503,-4.985713958740234,-3.0504400730133057,1.2413451671600342,-3.487424612045288,4.429347991943359,2.5421154499053955,0.8642920851707458,1.240488052368164,2.3195598125457764,-0.7011093497276306,-0.12659303843975067,3.8968210220336914,2.1097638607025146,-0.3630346655845642,-3.693763256072998,-1.7633169889450073,-0.4362381100654602,-4.765848636627197,-1.1173433065414429,-3.7468533515930176,-2.2373034954071045,-0.8112083077430725,-4.935764789581299,-0.271115243434906,0.9611077308654785,3.5157692432403564,4.60892915725708,1.8804349899291992,-3.7295613288879395,1.3976240158081055,0.08555445820093155,1.8912603855133057,-1.228080153465271,0.8825035095214844,7.685378551483154,-5.588714599609375,3.334465980529785,4.602734565734863,0.8343420624732971,0.2951032817363739,-1.1753954887390137,-4.955411434173584,-1.2095279693603516,-1.811832308769226,-4.02713680267334,3.929171085357666,1.464310884475708,4.979349613189697,6.627981662750244,-0.19868969917297363,-3.3667967319488525,-0.6452751159667969,0.4184304475784302,0.2245875895023346,-1.2662205696105957,1.852851152420044,-2.519010305404663,-2.7005105018615723,0.11711730062961578,-1.5314264297485352,2.8494796752929688,0.6222317814826965,-0.5266430377960205,-1.6221418380737305,-2.066789150238037,-4.061338901519775,2.5933151245117188,-5.959545612335205,5.505300521850586,-0.2529216408729553,-5.478944778442383,0.3986716568470001,-3.342777729034424,3.1406517028808594,8.543091773986816,2.2670772075653076,-0.7195887565612793,-6.2847900390625,3.286637544631958,-4.91890287399292,1.4294883012771606,0.0668264627456665,0.9618268609046936,-6.412014007568359,4.976406574249268,6.1249823570251465,-3.5635671615600586,1.12761652469635,8.538987159729004,0.6494233012199402,-2.87266206741333,1.5741699934005737,-5.168993949890137,-3.435947895050049,-2.3284218311309814,-8.493631362915039,-0.169731006026268,-7.880771160125732,-3.726229190826416,-12.063309669494629,3.3473737239837646,-3.3636014461517334,7.21187162399292,-0.5353556275367737,-5.115240097045898,3.05033540725708,-2.8660905361175537,-9.625033378601074,4.126928329467773,2.7457287311553955,7.325588226318359,-3.4842867851257324,-3.2282867431640625,0.908714234828949,0.39661964774131775,-4.7881340980529785,-4.170233249664307,-2.3026764392852783,-0.6975240111351013,3.5956192016601562,-3.0806281566619873,4.42791748046875,-6.9804558753967285,4.148711681365967,-4.117962837219238,3.2547967433929443,4.155977725982666,-2.5300357341766357,-3.6268696784973145,-4.179033279418945,-6.156932830810547,4.632582664489746,-1.8641399145126343,3.512578010559082,3.7812576293945312,5.10614538192749,7.43367862701416,1.3646608591079712,-3.0909132957458496,-3.2481720447540283,-9.21716022491455,-2.4119691848754883,7.285166263580322,3.9871299266815186,0.4350181818008423,0.4370751678943634,5.168200969696045,2.3839194774627686,-5.75004243850708,-0.22172312438488007,2.8271937370300293,-8.310242652893066,3.978898048400879,-6.632264614105225,-5.705734729766846,4.787442684173584,-3.207620859146118,7.0625529289245605,1.2854982614517212,2.7444586753845215,0.21131694316864014,2.638529062271118,6.104130744934082,0.294289767742157,-3.454596519470215,2.361222743988037,1.2081146240234375,4.236938953399658,0.7825638651847839,-7.273245334625244,4.684558391571045,1.8450990915298462,-5.196958065032959,7.113595485687256,-3.8892085552215576,0.06585972756147385,0.33570873737335205,1.704405665397644,2.4863405227661133,-0.8383289575576782,-1.2706260681152344,-1.3882604837417603,-6.733686923980713,-2.0437161922454834,1.3399478197097778,1.9020205736160278,1.0700525045394897,3.198676347732544,7.960546016693115,-3.645874500274658,-1.4488800764083862,4.0696001052856445,1.714565396308899,2.453385591506958,2.327484130859375,-1.105077862739563,1.0616563558578491,-0.03947865217924118,1.4994481801986694,1.6211860179901123,-0.8439472317695618,-10.994309425354004,-3.476022481918335,1.3784836530685425,-6.558523654937744,3.697067975997925,-4.7247796058654785,-0.4672112464904785,-1.300775170326233,-9.833268165588379,5.629205703735352,1.8130614757537842,2.243849515914917,0.6587363481521606,-5.550501823425293,-7.232247829437256,-8.596344947814941,-6.796682834625244,3.99578595161438,5.147593021392822,8.043233871459961,-3.1720130443573,1.7627431154251099,-1.9102916717529297,-6.861835479736328,2.449587821960449,6.538339614868164,2.775689125061035,-0.6156120300292969,-7.550838947296143,2.7659225463867188,-3.1353747844696045,-1.8459705114364624,2.9772324562072754,3.0615246295928955,5.773984909057617,-1.0463238954544067,-3.345050573348999,-2.279512643814087,2.1259424686431885,-3.923053026199341,-1.974182367324829,-9.870011329650879,0.03533584624528885,-1.6164227724075317,-2.8974859714508057,-6.108456611633301,-5.154246807098389,0.9822590947151184,5.6796369552612305,0.23182108998298645,-2.300013780593872,2.0893290042877197,4.9336676597595215,5.159012317657471,-1.6858444213867188,3.6467490196228027,-3.0410540103912354,-1.0440618991851807,-6.018491268157959,-1.3501631021499634,-4.448587894439697,-2.846924304962158,-1.8997787237167358,4.503111362457275,1.8909711837768555,5.829703330993652,5.959462642669678,2.1312639713287354,1.9884334802627563,-0.5915048122406006,-2.2202374935150146,3.4853835105895996,3.5565969944000244,1.682943344116211,1.9985679388046265,0.2541958689689636,-0.44998839497566223,-4.063258647918701,-9.765495300292969,-0.3856263756752014,-0.341107577085495,5.491046905517578,-6.823686122894287,9.095052719116211,0.9308987855911255,-13.052207946777344,-11.528879165649414,-7.650107383728027,-8.8255615234375,-0.6278230547904968,3.4672610759735107,1.2134567499160767,-4.544853687286377,-7.618256092071533,7.452746868133545,-1.9822545051574707,-9.140583038330078,3.096845865249634,6.577719688415527,3.572155475616455,-8.033082008361816,2.9185545444488525,-2.6688392162323,0.5739148855209351,5.531142711639404,-0.8060033917427063,-2.0818231105804443,5.050968170166016,10.128305435180664,-1.7851585149765015,0.35886746644973755,-3.084649085998535,6.282237529754639,-1.4434583187103271,2.9605906009674072,3.336373805999756,-2.016331195831299,1.1006524562835693,-0.3346913754940033,-7.104594707489014,-2.1155426502227783,-3.486912727355957,-1.9777777194976807,-0.9929920434951782,0.5983255505561829,2.2800261974334717,13.463898658752441,-9.043008804321289,4.871312141418457,11.861109733581543,5.317250728607178,2.3136508464813232,-3.3863351345062256,-5.370183944702148,4.633054256439209,-8.468820571899414,3.3074259757995605,2.115358829498291,4.2506422996521,-3.041938543319702,2.2844884395599365,1.556080937385559,-1.5816961526870728,4.382052421569824,-10.814595222473145,1.2326107025146484,8.386857986450195,-0.4552975594997406,-1.23428213596344,-7.224685192108154,-2.629392385482788,-11.639124870300293,0.16132861375808716,6.345620632171631,-5.774734973907471,-4.246793746948242,1.6335912942886353,-6.086038112640381,-1.5488948822021484,7.240963459014893,3.810518503189087,3.6881473064422607,4.621633529663086,-4.988310813903809,-5.217665672302246,-8.559856414794922,7.733701229095459,-1.5401848554611206,0.3925362825393677,-3.217499017715454,9.622161865234375,-1.1713976860046387,6.623645305633545,10.877227783203125,1.7271203994750977,-1.5163373947143555,-0.9952061176300049,-4.191415309906006,-2.853581190109253,-0.276962012052536,1.2816435098648071,2.060717821121216,10.682920455932617,-2.0592408180236816,-1.8071571588516235,0.10779399424791336,1.0938063859939575,-1.886621356010437,4.933051109313965,2.6158437728881836,-2.127216100692749,-4.342816352844238,4.61481237411499,0.4611853063106537,8.428593635559082,-2.960010528564453,3.595824718475342,0.9393280148506165,-0.5300110578536987,4.2868452072143555,3.548760175704956,2.8342485427856445,1.5200700759887695,-0.7531686425209045,-1.8564550876617432,-9.87584114074707,-4.876523971557617,5.317085266113281,-2.107996940612793,2.155858039855957,1.0631260871887207,-2.651393175125122,6.8605146408081055,-9.54910659790039,2.0004982948303223,0.9496660232543945,-6.881692886352539,-0.8396607637405396,-0.5859401822090149,5.799030780792236,0.7996090054512024,-4.026744365692139,-1.2710932493209839,1.2854515314102173,-3.817783832550049,-3.258808135986328,-8.914575576782227,-3.5746712684631348,-1.4884297847747803,-1.2209136486053467,0.0958198681473732,-2.1908113956451416,1.2184799909591675,-2.505681037902832,10.38342571258545,-3.7036149501800537,-4.025867462158203,9.937058448791504,1.7689400911331177,3.771514654159546,3.4984450340270996,0.6135777831077576,-0.06653206795454025,-1.9550232887268066,-2.022268295288086,0.9515897035598755,-1.267688512802124,2.4979305267333984,-1.5913777351379395,-3.0360267162323,-1.7941648960113525,-1.8237437009811401,-1.5338878631591797,-1.7473057508468628,-0.6181967854499817,9.49934196472168,0.0020596261601895094,5.201326370239258,-2.1325089931488037,-5.8516693115234375,-4.145398139953613,2.6075234413146973,1.9424631595611572,-3.2478630542755127,-6.096978664398193,-1.9555166959762573,-4.913994312286377,-3.3976786136627197,-0.06258917599916458,7.98383092880249,2.5919482707977295,-9.374999046325684,-0.4388773441314697,-0.8842741847038269,1.6777600049972534,-3.738032102584839,0.5968788266181946,8.189212799072266,-1.0645774602890015,-1.6881999969482422,-0.9247038960456848,0.06456633657217026,0.02090519852936268,3.6055853366851807,-5.569627285003662,2.6085500717163086,-9.492876052856445,9.851852416992188,-0.07700233906507492,1.3474339246749878,0.0019398208241909742,2.7126235961914062,4.790468692779541,1.295194149017334,2.5568478107452393,-2.376710891723633,1.0186470746994019,-3.4396443367004395,-6.149600505828857,3.1210925579071045,1.1711809635162354,4.814876556396484,-1.2818962335586548,5.585813522338867,-6.723569869995117,-1.3987188339233398,9.969902992248535,6.780519962310791,7.608288764953613,-3.735828161239624,0.022103706374764442,-6.420289516448975,-5.313147068023682,5.954434394836426,5.82167387008667,4.898531436920166,-0.3630307912826538,6.434602737426758,4.1613969802856445,2.096970319747925,-10.48615550994873,2.119609832763672,-12.876372337341309,6.058471202850342,-3.500425100326538,7.0961198806762695,-2.176891565322876,2.094996452331543,3.5580155849456787,0.5762998461723328,-8.439009666442871,-3.412806749343872,-1.045660138130188,-8.665079116821289,3.9545953273773193,-5.260561466217041,0.4274854063987732,0.3228274881839752,-5.543201446533203,-7.049295902252197,4.31419038772583,-14.304999351501465,6.456011772155762,6.71941614151001,0.8667668104171753,-1.5993084907531738,-7.211371421813965,1.3427245616912842,4.2294602394104,3.4703409671783447,4.52561616897583,5.057453155517578,-3.7100749015808105,4.264096736907959,4.048742771148682,3.879357099533081,0.16427648067474365,1.8435381650924683,5.660926818847656,-6.551148414611816,-1.0144212245941162,-4.214022159576416,8.422959327697754,5.311900615692139,3.181248188018799,6.589020252227783,-1.6615171432495117,-5.242005825042725,-3.3397884368896484,0.4261004626750946,-7.1190900802612305,-3.6221513748168945,1.41567862033844,-7.636153697967529,-2.8141133785247803,6.755054950714111,-7.407878875732422,2.7409279346466064,-4.240100860595703,-2.4710440635681152,2.051832675933838,6.1341094970703125,-7.911031723022461,5.0514726638793945,1.6116528511047363,1.4921480417251587,2.0609655380249023,-2.119584798812866,-1.3084256649017334,-4.97812032699585,-9.174702644348145,0.22355875372886658,1.2556324005126953,-2.304088592529297,-2.306321859359741,-0.402698814868927,-5.288652420043945,5.535499572753906,-1.6399410963058472,-1.070576548576355,-2.6207103729248047,-7.742286205291748,1.0570186376571655,1.429988980293274,-2.9495317935943604,-2.9871275424957275,0.05789032578468323,5.750505447387695,3.46551513671875,4.19688606262207,-9.278244972229004,1.769701600074768,6.068851470947266,-2.932543992996216,0.5459255576133728,-5.791025161743164,4.381035804748535,-4.460942268371582,-3.2368645668029785,2.021428108215332,-11.658373832702637,-6.3976216316223145,1.7557600736618042,-7.411831855773926,4.1935882568359375,-2.5192019939422607,-1.3559093475341797,-4.428005218505859,2.6682236194610596,-0.5037043690681458,-5.626926898956299,-1.5071651935577393,3.352349042892456,-0.2410362958908081,4.98499870300293,3.277879476547241,1.4634560346603394,0.10264783352613449,1.1479227542877197,0.23500075936317444,4.057800769805908,-6.685764312744141,-3.6339430809020996,-2.9818999767303467,-13.905220985412598,2.1135711669921875,-4.408341407775879,-8.025798797607422,4.117623805999756,-11.02099609375,6.284843921661377,-6.76293420791626,-1.3095972537994385,-0.6030275821685791,-1.3913708925247192,0.7800920605659485,0.5792081952095032,1.7505500316619873,1.8364157676696777,2.0501606464385986,-1.598961591720581,0.8045300245285034,0.6844280958175659,0.8341280221939087,1.4399871826171875,1.2042839527130127,-1.0057488679885864,3.3279178142547607,4.00758695602417,2.536510467529297,-2.324526786804199,0.8848257064819336,-0.45361319184303284,1.1252721548080444,-4.783658504486084,-0.8343990445137024,1.9526880979537964,-1.525997281074524,2.8782076835632324,-2.413545846939087,3.214254856109619,-2.853708028793335,3.6498329639434814,-2.7295191287994385,-0.1196771040558815,-0.36013850569725037,-0.7846921682357788,-2.3214809894561768,-2.292414665222168,2.8330013751983643,3.7240684032440186,-0.6560869216918945,0.02282058633863926,-0.42230021953582764,-0.5658662915229797,-1.2475099563598633,0.25310733914375305,-2.3480074405670166,-1.1940780878067017,-3.9669039249420166,0.4917060434818268,-1.5468192100524902,-0.07932493090629578,-0.16556316614151,2.720060348510742,-0.14732103049755096,-1.0957516431808472,1.1428483724594116,-1.2321492433547974,-2.080530881881714,-0.6688624620437622,-2.2820515632629395,2.67669677734375,2.3669586181640625,-1.3889505863189697,1.141836166381836,3.3975887298583984,0.007038160227239132,-1.111660361289978,1.1415672302246094,-4.141613483428955,-0.37494197487831116,-1.1574476957321167,-1.6658775806427002,0.3559897840023041,1.4115409851074219,2.9112966060638428,-1.0959484577178955,-0.025888046249747276,0.058600302785634995,-0.013801174238324165,-0.06922107189893723,-0.05213257297873497,-0.06299865245819092,0.018838180229067802,-0.06758113205432892,-0.025613240897655487,-0.027687648311257362,0.0002058102545561269,-0.002296427497640252,-0.030157629400491714,-0.008489069528877735,-0.0485081672668457,-0.0478784516453743,0.0569080114364624,0.03689020127058029,-0.012155788019299507,0.056463129818439484,-0.024866560474038124,0.028106587007641792,0.049339666962623596,-0.0611724928021431,0.02512192539870739,0.0125060910359025,-0.0265387874096632,-0.06692232936620712,0.05808533728122711,-0.0289003886282444,0.003319421550258994,-0.041079889982938766,0.05939989909529686,-0.02721305750310421,-0.0654718428850174,0.011402205564081669,0.008963709697127342,0.046950798481702805]},"hiddenLayers":[{"inputMatrix":{"rows":20,"columns":38,"weights":[-2.4078528881073,-0.08998113870620728,-0.4863984286785126,0.3093932867050171,2.6657440662384033,0.19177822768688202,-1.661256194114685,-2.0393242835998535,-3.3449177742004395,0.4716152250766754,-0.10168284177780151,1.363836646080017,-2.444737434387207,0.5507550239562988,1.340400218963623,-2.951932191848755,-4.471590518951416,-0.34380778670310974,2.7776379585266113,-0.7444658875465393,1.120720386505127,-4.1522111892700195,2.6951775550842285,-0.4803018271923065,0.3703569173812866,3.6422860622406006,-0.6516326069831848,3.246056079864502,-3.1254465579986572,-1.2132282257080078,0.6308952569961548,-1.0742793083190918,-0.0030546230264008045,-3.6867446899414062,-2.4541146755218506,-1.0655633211135864,0.16693025827407837,-0.874580979347229,-2.9210381507873535,-1.1919962167739868,1.3073703050613403,-1.025313377380371,-0.7535476088523865,3.322845458984375,-0.9687171578407288,-0.3582233190536499,-0.44696325063705444,1.3649325370788574,1.9235820770263672,-1.6704564094543457,1.3532302379608154,0.02103128656744957,-2.8759546279907227,0.1836363524198532,-1.114532709121704,-0.16846762597560883,-1.5531429052352905,3.960447311401367,2.156459331512451,-0.5791833400726318,-0.07112579792737961,-2.450439691543579,0.6526582837104797,1.3227002620697021,1.5521628856658936,1.0511586666107178,-2.038219690322876,-3.8997232913970947,0.6638259887695312,-0.884192705154419,1.5136975049972534,-1.5103368759155273,-0.06450854241847992,-1.4330575466156006,1.060847282409668,-1.667585015296936,3.7622885704040527,0.008893529884517193,-0.8689227104187012,-0.9167987704277039,0.35570716857910156,-2.1537678241729736,4.240575313568115,-1.2413965463638306,0.06526369601488113,-0.971795916557312,0.7419430017471313,-3.7112913131713867,0.8685727715492249,0.9286514520645142,1.619600772857666,-0.5044047236442566,-0.07291577011346817,1.9133634567260742,-2.6604251861572266,-1.0730466842651367,-1.9215848445892334,-0.4746270477771759,-1.299333095550537,0.08216898888349533,-1.5625122785568237,-0.2368716299533844,-0.3342631459236145,-1.3621066808700562,2.0800905227661133,3.8198294639587402,0.0748426616191864,2.335768461227417,-2.416088819503784,-0.27737459540367126,2.5480268001556396,-1.2989000082015991,-2.4667086601257324,0.4409543573856354,1.8991414308547974,-0.19459491968154907,1.6268422603607178,-0.8032063245773315,-0.9308794140815735,2.260822057723999,-1.136866807937622,-2.077744960784912,-0.9580671191215515,-1.4268447160720825,-0.5638865232467651,0.22812704741954803,3.4803802967071533,-0.5918829441070557,-2.057762384414673,-2.453956127166748,-2.402233600616455,-0.5637161135673523,-2.525801420211792,-2.541378974914551,-0.017624851316213608,-0.6228275299072266,1.2651437520980835,1.0243779420852661,0.05116007849574089,0.7783603072166443,1.0671563148498535,-3.020923137664795,-2.763320207595825,-0.19677790999412537,-1.0115952491760254,-0.31797003746032715,-1.7688511610031128,-0.4802268147468567,3.26637601852417,0.31725624203681946,1.0148955583572388,-2.729757785797119,0.16243210434913635,0.17697873711585999,1.573066234588623,-0.9980204701423645,0.6630367040634155,1.111070990562439,-2.331597089767456,1.781376838684082,1.0655049085617065,0.8368347883224487,-3.99558424949646,0.9437159895896912,0.4794095754623413,-2.512463331222534,-4.871293544769287,-1.4032021760940552,-0.4495691955089569,1.9989413022994995,3.662093162536621,1.942142367362976,0.18491016328334808,-1.6364253759384155,-2.5948400497436523,-1.5360016822814941,-1.373055338859558,-3.045833110809326,-1.027292251586914,-0.6298223733901978,-1.2892873287200928,2.405691623687744,0.7026090025901794,-0.6896684169769287,0.7450385093688965,3.211871385574341,-0.31418925523757935,2.3962953090667725,-0.3785693049430847,-0.4497271776199341,2.738870620727539,0.1743471473455429,-2.32588267326355,-2.2860453128814697,0.9665089845657349,-1.8681968450546265,2.108367919921875,1.0974504947662354,1.1391888856887817,0.4939277768135071,0.06661143153905869,-0.9173716902732849,1.127306342124939,0.564504086971283,-0.33539849519729614,-0.23743729293346405,0.5397441387176514,1.3077033758163452,0.4901902675628662,0.5386233925819397,1.5948166847229004,-1.1974557638168335,-0.9944279789924622,0.21466250717639923,2.548111915588379,-0.21229590475559235,0.3326210081577301,2.1831719875335693,-0.6340614557266235,3.044616222381592,1.6613467931747437,1.9088279008865356,-0.24214601516723633,-0.11501988023519516,-0.9086279273033142,-1.8019683361053467,-2.3343212604522705,5.241800308227539,0.9868122935295105,0.2824287414550781,-2.1131787300109863,-1.0110386610031128,0.33754962682724,1.7108328342437744,0.006907085422426462,-2.610940456390381,-2.727367401123047,-2.3856537342071533,0.2747704088687897,-3.5410327911376953,-1.2895090579986572,1.7635743618011475,0.01562630943953991,0.4824928343296051,-1.1539911031723022,0.4463694989681244,1.5065642595291138,0.2187865674495697,0.5734830498695374,-1.0912426710128784,0.3996340334415436,0.2267596423625946,0.49990037083625793,1.0732982158660889,-2.6858649253845215,1.357474684715271,-1.592455267906189,1.2921077013015747,-1.3306101560592651,2.384488344192505,0.4110354483127594,-1.8147265911102295,1.1870018243789673,-1.1212905645370483,-0.9549857378005981,-0.9763237237930298,-0.0006345753208734095,-0.18132510781288147,4.152939319610596,0.9925428628921509,-0.5834406018257141,-0.18638195097446442,-2.851316452026367,-1.8448867797851562,0.3511624336242676,1.407336950302124,-0.9907604455947876,3.165402889251709,-3.331087350845337,-1.4493533372879028,-0.9905427694320679,1.3170286417007446,2.1046559810638428,1.219357967376709,4.020326614379883,2.447793960571289,-0.042336784303188324,0.5610621571540833,-0.8064298033714294,-2.299774408340454,-0.9771649241447449,-1.0497310161590576,-1.212729811668396,2.8201100826263428,0.016608627513051033,0.9357569813728333,1.18468177318573,-3.340357780456543,0.022156724706292152,0.45967531204223633,1.8274712562561035,1.5817630290985107,0.1571921855211258,2.6272621154785156,-0.3257219195365906,1.2914557456970215,-0.20301760733127594,2.8231124877929688,-0.9975956678390503,0.4541448950767517,0.4614716172218323,3.673013925552368,1.2249672412872314,0.3238813281059265,-2.964406967163086,1.095662236213684,-0.8941468000411987,-0.20056726038455963,-0.23266224563121796,-1.233262538909912,-2.9047465324401855,3.467982769012451,2.472597599029541,0.6325253844261169,-1.6588643789291382,-2.480064868927002,-2.3052029609680176,1.5892786979675293,-3.613525629043579,-0.9015014171600342,-1.5539039373397827,2.9041635990142822,-0.426179975271225,3.7166717052459717,2.9537220001220703,-0.3298697769641876,1.9161784648895264,1.5758934020996094,-1.0253641605377197,0.3848232924938202,-1.5179007053375244,0.2656950354576111,0.19331876933574677,-0.6765933036804199,0.14425444602966309,-0.31041502952575684,1.2139753103256226,-1.1295653581619263,1.0957493782043457,-3.1536455154418945,-3.6333494186401367,-1.7953225374221802,0.967803418636322,-2.3146255016326904,-2.570712089538574,0.9114709496498108,0.5390745401382446,-1.621135950088501,-0.39825499057769775,-1.6562597751617432,-0.35179051756858826,-0.21597908437252045,0.9706785678863525,-1.174303412437439,1.4388917684555054,0.14796629548072815,1.7457115650177002,0.9873621463775635,2.7168734073638916,3.9679572582244873,-2.333129405975342,0.03246051445603371,0.10863208770751953,-0.8753693103790283,-0.23786504566669464,-0.2538307309150696,-0.8594918251037598,0.041165366768836975,0.690578043460846,2.102433443069458,1.0071638822555542,-0.15950947999954224,1.6353791952133179,0.10440169274806976,0.8783701062202454,-2.6217079162597656,1.369285225868225,-0.4769013524055481,-1.452258586883545,2.1017026901245117,-0.6414334774017334,-1.4318033456802368,-0.6530756950378418,-2.6231141090393066,-3.250932216644287,-1.63511323928833,-0.923456609249115,-2.9584217071533203,0.23341889679431915,-1.1786597967147827,-1.0912784337997437,0.4665831923484802,1.2664556503295898,0.9044065475463867,-2.16493821144104,0.3003801703453064,0.6860677003860474,-0.8809741139411926,-1.4172894954681396,0.5233101844787598,0.9945846796035767,-0.17305894196033478,-0.6147347092628479,-0.6611061096191406,-4.055450916290283,1.7388296127319336,1.774687647819519,-0.9098287224769592,0.8413385152816772,2.1784555912017822,2.486307382583618,-2.953622817993164,-0.8409796953201294,0.8146647810935974,-2.669671058654785,-0.6842007637023926,-2.1998167037963867,0.0696064829826355,-0.5599134564399719,2.0755579471588135,0.6183761954307556,-0.18292203545570374,-0.31958886981010437,-2.354893684387207,-4.154829978942871,2.0567522048950195,-0.4986867308616638,-0.530695378780365,1.4959936141967773,-2.831364393234253,1.1856189966201782,-1.1231622695922852,0.30180197954177856,1.6511399745941162,-1.0939061641693115,2.365598440170288,-1.0493388175964355,-1.518846869468689,-2.31577730178833,1.1282485723495483,-0.20551252365112305,-1.4846631288528442,1.7765721082687378,1.0232975482940674,-0.1358100026845932,-2.3724679946899414,2.660176992416382,1.8757598400115967,0.4499776363372803,-0.7172818183898926,2.0553154945373535,0.10815005749464035,3.5858211517333984,1.172732949256897,1.6077630519866943,1.143642544746399,-0.3051917254924774,-2.1308064460754395,3.0692923069000244,0.8120198249816895,-4.691756725311279,0.2067171335220337,-2.6476190090179443,-0.09125105291604996,-0.550606369972229,1.2036969661712646,1.2675631046295166,0.23961001634597778,-1.3616284132003784,-2.831592321395874,2.163872241973877,1.6875697374343872,0.6352734565734863,1.1507697105407715,-0.27828288078308105,-1.9468352794647217,2.2890982627868652,1.0363250970840454,2.4409115314483643,-3.29274320602417,3.2271852493286133,-2.382780075073242,-2.959327459335327,0.10664210468530655,2.5003151893615723,1.450601577758789,0.0954228937625885,-0.7410101294517517,-3.075106620788574,-1.5609216690063477,0.572987973690033,-0.1247095987200737,-0.054267045110464096,-3.2483575344085693,1.5102930068969727,-0.14137987792491913,-0.6030286550521851,0.36402907967567444,1.6483078002929688,0.010920863598585129,-2.0677480697631836,-1.9498252868652344,0.6632478833198547,-2.4571101665496826,-1.1983425617218018,1.230530858039856,2.0089099407196045,3.4891517162323,-2.034510612487793,2.0094423294067383,0.7685806751251221,-1.1181018352508545,0.6005322337150574,0.5250044465065002,-3.3430871963500977,0.7462207078933716,-0.9187111258506775,-0.44441360235214233,0.47416675090789795,-1.3013254404067993,1.687408685684204,-1.690420389175415,2.186885118484497,0.7606223225593567,1.6850671768188477,-0.9018765687942505,-1.5270432233810425,-2.754488468170166,0.6168015003204346,-2.108628511428833,1.1113044023513794,1.8805068731307983,-3.0963101387023926,0.3127996325492859,-2.265882730484009,-0.14438317716121674,2.744278907775879,-2.9525535106658936,-0.8704046607017517,-0.9846048355102539,-0.6622911691665649,-0.5315311551094055,-0.7684254050254822,-2.131747245788574,3.468068838119507,-0.7681439518928528,-0.19284984469413757,-0.9565401077270508,0.13253723084926605,3.5001447200775146,-2.427868366241455,1.9158304929733276,1.170021414756775,0.1542091965675354,-1.315906047821045,-1.8948935270309448,0.420808345079422,1.5251293182373047,0.09119796007871628,1.6832789182662964,0.12076003104448318,0.2648411989212036,-1.6656609773635864,1.011682391166687,-0.9516677856445312,-2.7112369537353516,-0.45743438601493835,-0.3958275020122528,0.410413920879364,0.7192114591598511,-1.511584997177124,-0.7459850907325745,-2.184849977493286,0.003299256321042776,3.0757179260253906,-0.9036887288093567,-2.2451062202453613,0.03504094481468201,-0.0500243604183197,-0.9173837304115295,-2.533968448638916,1.3801363706588745,-1.2826889753341675,0.6172906160354614,-1.9793626070022583,-2.252150774002075,-1.0124610662460327,-1.3128007650375366,0.7622968554496765,3.876378297805786,1.2231494188308716,0.4167024493217468,-0.8705846667289734,2.9221532344818115,0.2576281726360321,0.383955717086792,1.3719767332077026,1.456750512123108,-1.4336155652999878,0.04997897520661354,0.37438276410102844,-2.0123631954193115,-2.802802085876465,0.6068817377090454,2.1026551723480225,1.0800143480300903,-0.9063299894332886,-3.7382028102874756,2.7456045150756836,-0.23001213371753693,0.36300262808799744,2.1722288131713867,2.13240909576416,0.6217905879020691,-1.6226651668548584,1.6894253492355347,0.2595372498035431,-1.273730993270874,0.035311464220285416,-1.1636390686035156,-0.7175743579864502,0.4194304049015045,-2.6195623874664307,1.4234908819198608,-0.16851481795310974,2.01483154296875,-0.3403952419757843,-0.042741402983665466,-3.2187142372131348,0.2915342450141907,-1.8373358249664307,-0.0035152449272572994,0.8114429116249084,-1.1952180862426758,-0.5146030187606812,-0.10796341300010681,-2.5479769706726074,0.3058996796607971,-2.133354425430298,-0.18196983635425568,-0.21518343687057495,4.799537181854248,0.4067380428314209,-0.06610994786024094,-1.8743077516555786,-1.307023286819458,2.56172251701355,-0.4426100552082062,0.9708163142204285,-0.03620714694261551,-2.3161685466766357,1.2214570045471191,-1.151496410369873,2.66670560836792,0.5816249847412109,-1.3909828662872314,-2.2383484840393066,0.7088297009468079,-0.3051447868347168,1.6020925045013428,-2.5481274127960205,1.8784854412078857,1.0669413805007935,0.08001118898391724,-0.3081134557723999,-1.9290251731872559,1.5986385345458984,-0.8614298701286316,0.7175508737564087,-0.24390774965286255,1.396140456199646,-1.9026833772659302,-2.5770058631896973,-0.06448725610971451,-0.932712972164154,-1.7049521207809448,0.08643673360347748,0.7380297780036926,3.6884706020355225,1.9435760974884033,-1.1718567609786987,-0.6608348488807678,0.31147393584251404,-1.704529047012329,-1.5790969133377075,1.5318773984909058,0.5275995135307312,-1.6317555904388428,-2.344320774078369,1.6120661497116089,1.4845058917999268,-0.5593723058700562,0.19700965285301208,2.02366042137146,1.304747223854065,1.708763837814331,0.10667942464351654,-2.285411834716797,1.4980008602142334,0.21587906777858734,0.01608717069029808,-0.39216864109039307,0.24937212467193604,-4.574581623077393,3.264033317565918,-0.6219743490219116,0.5314980149269104,-2.321268320083618,-1.1175341606140137,0.025205794721841812,-0.8462979793548584,-0.2633533477783203,-1.0311684608459473,1.214347004890442,1.5252190828323364,-1.6092939376831055,0.8199957609176636,-1.5911688804626465,-1.2032299041748047,-1.4033483266830444,2.3655991554260254,3.5019776821136475,-0.8790323138237,0.09298494458198547,-2.7180631160736084,-0.18990378081798553,-0.23436084389686584,-1.213520884513855,-0.2601606249809265,-1.1099425554275513,2.12554931640625,-0.31383204460144043,-0.85793137550354,0.16640813648700714,0.871138334274292,0.13603736460208893,-3.319850206375122,-0.8039988875389099,-0.2995159924030304,-0.45459282398223877,-0.8003148436546326,1.63331139087677,3.800457239151001,-0.12386120855808258,-0.8604598641395569,1.233405351638794,-0.5125048756599426,3.7150304317474365,0.40042489767074585,1.790378451347351]},"inputHidden":{"rows":20,"columns":20,"weights":[-3.2390031814575195,0.2022591382265091,0.28488484025001526,-1.087271809577942,-1.1652541160583496,-5.694124698638916,-0.1321219950914383,3.9682772159576416,-0.5148753523826599,1.2652305364608765,-2.1391847133636475,-3.1969425678253174,3.110379934310913,2.328502655029297,-1.7211194038391113,-3.185854911804199,-1.6855664253234863,0.9945837259292603,1.18159019947052,1.0646864175796509,2.2413523197174072,1.0092462301254272,-0.5176088213920593,-0.05984624847769737,-0.5550159215927124,0.4533598721027374,1.1849175691604614,-1.7013871669769287,3.1331071853637695,0.3285267651081085,-0.31506994366645813,0.9440773129463196,0.7319663763046265,1.9395792484283447,-2.4772822856903076,0.5314307808876038,0.8694741725921631,-2.5767366886138916,1.1122288703918457,-1.2785930633544922,-1.5819584131240845,-0.04201958701014519,0.20153728127479553,0.7542151212692261,1.584489345550537,1.8965885639190674,4.097280979156494,-0.8168581128120422,2.1193249225616455,0.454520583152771,0.7975417971611023,2.0069828033447266,-1.1724352836608887,1.287627100944519,-0.4691370129585266,0.8282626867294312,-0.5859987735748291,0.3188644349575043,-0.20120403170585632,0.346870094537735,-1.1425797939300537,-1.634945273399353,0.3884948194026947,-2.608759880065918,-0.025475842878222466,0.8578640818595886,-2.1657118797302246,1.3952683210372925,-3.189495801925659,-0.4533337354660034,0.5357792377471924,-1.5556528568267822,-0.1214999184012413,3.0982096195220947,1.5085664987564087,0.6113519668579102,-0.27177000045776367,-1.1275464296340942,1.3010185956954956,-1.8508392572402954,-1.5491260290145874,-1.1920828819274902,3.8356618881225586,-1.1171143054962158,-0.8425354361534119,1.5649375915527344,-0.8782156109809875,0.2750672996044159,-0.14945779740810394,-0.03213682398200035,1.7001540660858154,-1.7502275705337524,2.2092599868774414,2.520789623260498,-1.3398090600967407,0.6478970050811768,-2.615908622741699,0.8328564763069153,-1.9184105396270752,2.0233676433563232,-0.2737317383289337,0.31431224942207336,2.0300309658050537,-4.8209733963012695,0.9158058762550354,-1.1811894178390503,1.7976499795913696,-1.8436099290847778,0.5890369415283203,-2.8207526206970215,-2.193168878555298,-0.11376335471868515,3.9240167140960693,0.4078427851200104,0.757757842540741,-0.5280569195747375,-3.7993898391723633,-1.0570253133773804,-1.4630241394042969,-3.8357393741607666,-0.7564379572868347,-3.4165730476379395,-3.550858497619629,-1.7559773921966553,3.2870540618896484,3.249570608139038,1.2447428703308105,-3.069941282272339,1.8162775039672852,0.050524596124887466,2.962970733642578,1.5591182708740234,-0.7832432389259338,-1.008448839187622,1.2041358947753906,1.6602123975753784,-1.4442243576049805,-2.3583879470825195,2.202618360519409,0.6607663035392761,-0.5687758326530457,1.2237187623977661,-0.6706180572509766,0.5391358733177185,0.8835828900337219,0.9096752405166626,0.4273727834224701,-0.015591446310281754,-0.10716842859983444,0.5941179394721985,0.31425440311431885,2.9554014205932617,1.0721930265426636,-0.418727844953537,1.8118534088134766,-0.42560768127441406,0.3304339647293091,-1.419310450553894,-0.9362435936927795,0.7469655871391296,-1.6492105722427368,1.4644362926483154,2.0491559505462646,-2.593736171722412,-4.588706970214844,-2.0255887508392334,-1.2373909950256348,3.885610818862915,-1.1817102432250977,-1.8362576961517334,-3.0584869384765625,1.4471216201782227,0.8642303347587585,-2.687854290008545,-1.7884094715118408,0.5439479351043701,-0.4659239947795868,-0.7169110178947449,-0.43474167585372925,-2.047640562057495,0.9694200754165649,-1.2857173681259155,0.8439760208129883,-1.8018522262573242,-1.8594627380371094,2.437160015106201,-0.4339653253555298,1.5781859159469604,1.2372817993164062,-0.6140410304069519,-3.1326732635498047,-1.0875040292739868,-0.8591181635856628,0.05166082829236984,-2.6953182220458984,0.551719069480896,-4.180822372436523,0.9347355961799622,1.4384711980819702,1.3596770763397217,-0.5005941390991211,0.4971146881580353,3.811992645263672,-5.137801170349121,-4.234283924102783,-2.883861541748047,-0.854040801525116,1.1726902723312378,-2.373368263244629,3.532500743865967,0.594432532787323,-1.3057068586349487,4.491360187530518,1.2180273532867432,-1.7021434307098389,-1.3962616920471191,-5.1497955322265625,1.871269941329956,-2.2827889919281006,-7.019674777984619,-1.13344407081604,2.4669296741485596,-3.749239206314087,2.2918927669525146,2.3541030883789062,-0.8060076832771301,-1.0561871528625488,-1.6668351888656616,0.21922239661216736,3.2018985748291016,0.36854279041290283,0.3411269783973694,0.22107139229774475,-3.588733196258545,3.6968023777008057,0.3304665982723236,-0.2065306305885315,-1.675262689590454,-1.6270041465759277,0.21996960043907166,3.0932512283325195,1.5816593170166016,-2.79853892326355,-0.08644581586122513,-1.6776082515716553,0.7644144296646118,2.4523425102233887,3.9073736667633057,-0.8570576310157776,-3.222684860229492,-4.057157516479492,-0.47393298149108887,4.366890907287598,0.15743307769298553,-2.0066020488739014,-0.2420676052570343,-1.3622915744781494,-0.5364763736724854,-0.2650235593318939,-1.3963395357131958,-1.3921425342559814,0.573211133480072,-1.8464140892028809,-0.34435731172561646,-2.8361947536468506,0.4082801043987274,-0.4139085114002228,-2.0782058238983154,1.7943313121795654,3.382693290710449,2.143033981323242,1.5938243865966797,-0.5271682143211365,0.7852581143379211,1.198925256729126,-2.5310311317443848,-0.8448393940925598,1.038312315940857,2.898770809173584,-5.132618427276611,5.474448204040527,2.392124652862549,-0.9312292337417603,-3.9372496604919434,-1.9919946193695068,-2.1975111961364746,3.149357318878174,1.4665322303771973,-0.03512115031480789,0.47920796275138855,-2.052185297012329,-10.084249496459961,2.8596973419189453,4.370330810546875,4.186526298522949,0.7108218669891357,1.256750464439392,0.5067362785339355,0.6279761791229248,4.057465076446533,4.596071243286133,-1.241391658782959,-0.8051784038543701,1.6061218976974487,-0.7870405316352844,-0.21146263182163239,-0.8268619775772095,0.6024979948997498,-0.3838910162448883,-1.2160230875015259,-2.1231448650360107,0.3897467851638794,1.7806615829467773,-1.4642597436904907,-0.7326511740684509,-1.637552261352539,-2.0207695960998535,1.0434225797653198,-0.6599686145782471,0.1027933806180954,-0.43245890736579895,1.661157250404358,-1.856907844543457,1.0363620519638062,4.625418186187744,-2.6006200313568115,-0.09449730813503265,-0.7091618180274963,-0.18647761642932892,-3.0730230808258057,-0.6055470705032349,0.48714888095855713,-0.713704526424408,-1.422620177268982,-2.436528205871582,-0.6959336996078491,-0.6636593341827393,-1.6848962306976318,8.858246803283691,4.414780139923096,-0.8293917775154114,-1.013176441192627,-1.8857495784759521,2.300586462020874,1.1942657232284546,0.8354977369308472,1.6203068494796753,-1.4521535634994507,0.9315751194953918,1.6542282104492188,1.5588698387145996,0.7075810432434082,0.9289548993110657,-0.7898017168045044,1.8668757677078247,-0.9467760920524597,3.163616418838501,-0.23570173978805542,2.190446376800537,0.7574951648712158,1.508948564529419,-0.9411987066268921,2.0909621715545654,-1.8180711269378662,-0.7723894119262695,-0.21721921861171722,0.9158074855804443,1.3200123310089111,1.4711315631866455,-2.8176610469818115,-2.8715994358062744,-4.586780071258545,3.0820271968841553,-3.090191125869751,-2.675797462463379,2.9868319034576416,-0.42204010486602783,4.017786026000977,-2.8645710945129395,-4.372798919677734,-0.19047483801841736,-1.6996771097183228,2.0589334964752197,0.16671334207057953,-1.8605566024780273,-0.5650153160095215,1.5307587385177612,1.691409945487976,0.052177947014570236,-1.2177319526672363,-1.8894927501678467,1.2981441020965576,1.9617564678192139,-2.003462314605713,-3.9898102283477783,-0.6843525171279907,1.6615442037582397,-1.3991518020629883,-1.7671855688095093,-3.7861390113830566]},"inputBias":{"rows":20,"columns":1,"weights":[-1.3854795694351196,-0.8160195350646973,-1.1705803871154785,-0.41530895233154297,-1.3612416982650757,0.42296186089515686,0.5897130966186523,-0.35178259015083313,0.08438364416360855,-0.9505983591079712,0.053839653730392456,1.169542908668518,-1.5122841596603394,-0.7498911619186401,0.9625442028045654,-0.5810417532920837,-0.278825581073761,-0.9250304698944092,-0.011162776499986649,-0.6582791805267334]},"forgetMatrix":{"rows":20,"columns":38,"weights":[0.44835495948791504,1.3830066919326782,-1.6551570892333984,-0.37020471692085266,1.4550670385360718,-0.7683097124099731,-1.5398197174072266,-0.2949828505516052,-1.8721137046813965,1.3776417970657349,2.5424749851226807,1.1710036993026733,0.4547620713710785,0.24340972304344177,-2.9373388290405273,1.9240821599960327,0.5700742602348328,-2.079423189163208,-0.030491666868329048,-0.23607254028320312,-0.15005949139595032,0.6616536974906921,1.3513041734695435,-2.490762710571289,1.0483999252319336,-1.508630633354187,0.33423176407814026,0.22255302965641022,0.09836199134588242,-3.3444325923919678,2.1640377044677734,1.5008249282836914,0.8401085138320923,1.5878571271896362,-0.6361891031265259,1.8508707284927368,0.570336103439331,1.4901739358901978,-0.19807852804660797,1.039692997932434,-1.5229955911636353,-0.2986166179180145,2.1438772678375244,3.20632004737854,-1.2594753503799438,1.264380693435669,-3.7856931686401367,1.1044213771820068,-0.30290359258651733,-1.3537287712097168,3.1549971103668213,-0.8293953537940979,-1.8797415494918823,-0.524139404296875,-0.36061209440231323,-0.15705834329128265,-0.3207166790962219,1.5021365880966187,-1.3861075639724731,-2.1405532360076904,-1.6607288122177124,-1.3159085512161255,0.5878009796142578,-0.544178307056427,1.6103218793869019,-0.7934589982032776,-0.190693661570549,-3.6577200889587402,1.6317718029022217,0.5922979712486267,-0.9507909417152405,-0.6622710227966309,0.06294357776641846,0.7304384112358093,1.2626172304153442,-0.08194112777709961,0.35457250475883484,-2.0210821628570557,-0.30610892176628113,-0.60200434923172,-0.9700939059257507,1.9054183959960938,1.431604027748108,-2.101396083831787,0.8867350816726685,-3.9340603351593018,0.27875861525535583,0.018635176122188568,-0.3998710513114929,1.4504715204238892,1.8981289863586426,-0.4975851774215698,0.24905537068843842,2.7122912406921387,0.790463924407959,0.34064921736717224,0.1656455546617508,-0.9803456664085388,-0.8437694907188416,1.4267739057540894,-1.5049505233764648,2.5295565128326416,0.5880523920059204,0.6986820101737976,-1.445400595664978,-0.7090913653373718,-0.8554349541664124,0.07619835436344147,-0.5256717801094055,-1.0627003908157349,2.8140828609466553,-2.387979030609131,-0.6296914219856262,-1.7498267889022827,2.966200590133667,1.0295246839523315,-0.17091599106788635,0.1429964303970337,-1.5672277212142944,-1.4198216199874878,0.5677563548088074,1.0642707347869873,-0.08644694089889526,-2.3694682121276855,1.7191879749298096,1.5980406999588013,-1.9719221591949463,2.5359151363372803,-0.2533884644508362,-1.937709093093872,-1.0157535076141357,-0.05784447118639946,-4.526534557342529,-1.949079990386963,0.10701435804367065,-0.2439795583486557,0.5979074239730835,2.7618725299835205,0.253635048866272,-0.43328559398651123,-0.9340211749076843,-0.4946615993976593,0.6750175952911377,-0.4074490964412689,-1.0584962368011475,0.45097729563713074,-0.07242932170629501,2.242683172225952,-0.7791895270347595,0.17087458074092865,1.3259564638137817,-1.6876428127288818,-1.5807676315307617,-0.9372360706329346,1.258428931236267,1.8378994464874268,1.4284226894378662,-2.1243064403533936,2.668104410171509,-0.14514796435832977,0.9702101349830627,0.47538426518440247,-0.47313183546066284,-1.4663496017456055,-1.938220739364624,0.01954759657382965,-2.879258632659912,-0.242192342877388,2.212503433227539,0.3859996199607849,0.7017378807067871,0.6640549898147583,2.447800874710083,-0.2223595529794693,0.5277630090713501,-2.3001298904418945,1.5321812629699707,-0.3368934690952301,0.7933145761489868,-0.09739276766777039,1.271422028541565,2.526212453842163,-2.110095977783203,1.5305458307266235,-1.1845252513885498,-0.7302122712135315,-2.270357608795166,-0.47629132866859436,2.437390089035034,-2.720669984817505,0.44199028611183167,-0.7495240569114685,-0.9243239164352417,-0.19581329822540283,0.6166504621505737,-1.0137999057769775,0.7824891805648804,-0.5775876045227051,1.2649354934692383,0.6332114338874817,-0.7709972262382507,-0.41260284185409546,1.839421033859253,-1.8252506256103516,0.36764809489250183,-0.620354175567627,-0.7080593109130859,0.6978859305381775,2.6630682945251465,0.6951865553855896,2.8087894916534424,-2.3990676403045654,-0.43403729796409607,-0.21324720978736877,0.6988493800163269,1.679898738861084,1.4530131816864014,-0.1644631177186966,-2.303067922592163,1.3850140571594238,-0.003107314230874181,0.34388595819473267,1.088450312614441,-0.7618563771247864,1.4120663404464722,-1.9459093809127808,-1.6853227615356445,0.028206951916217804,1.6536884307861328,0.16899649798870087,-1.3006513118743896,-2.0957863330841064,0.02825164794921875,-0.5478332042694092,-0.20600874722003937,-1.2767773866653442,-2.25469970703125,0.2860616147518158,1.744037389755249,-2.343804121017456,1.1385115385055542,0.41454824805259705,-0.2793484926223755,-0.3340055048465729,-0.5378621220588684,-0.3066384792327881,-0.6542423963546753,-1.0996464490890503,0.13844937086105347,-1.839171290397644,1.2963199615478516,1.1994885206222534,0.8853912353515625,0.9548174142837524,1.9966765642166138,-0.48242124915122986,0.9188436269760132,0.24272282421588898,-1.6211143732070923,2.2513628005981445,0.3905490040779114,-0.4148234724998474,0.32155078649520874,-1.4968644380569458,0.7978798151016235,-2.5044023990631104,-3.347872495651245,-0.525706946849823,-0.7108778953552246,-0.8581969738006592,-2.2835702896118164,0.8618741631507874,-2.23740816116333,0.4443329870700836,1.2372044324874878,-0.48204347491264343,2.6176371574401855,2.6535375118255615,-0.7641919255256653,2.051575183868408,0.7569631934165955,4.973089218139648,1.9216893911361694,-0.1984551101922989,0.06293604522943497,-0.28495848178863525,-1.6057144403457642,1.9822403192520142,-1.8583177328109741,1.2016315460205078,0.968173623085022,-0.4861699342727661,-0.8617361187934875,-0.906795859336853,0.5289143323898315,-1.5948021411895752,0.8963831067085266,-0.514430820941925,-0.6303554177284241,2.129124402999878,0.3119003474712372,-0.5870732665061951,-1.2085736989974976,-0.023811770603060722,-1.3389239311218262,-0.3111999034881592,-0.013685598969459534,-0.4300514757633209,2.2766246795654297,0.9115341901779175,-1.2062278985977173,0.26920071244239807,-2.018486976623535,2.5430867671966553,0.0489206537604332,-1.0967414379119873,-0.9173011779785156,-0.7183118462562561,-2.522284984588623,1.9234113693237305,0.09876757115125656,0.2566169500350952,-0.09507845342159271,1.8338003158569336,0.16723470389842987,-0.6005259156227112,0.2972455322742462,-2.183783769607544,1.6534435749053955,-1.8864295482635498,-2.810878038406372,0.3979659378528595,-0.9370467662811279,0.2504352927207947,3.428347110748291,0.900378406047821,-2.071105718612671,1.0634099245071411,-0.4929799437522888,1.2130258083343506,-0.7185003161430359,2.561424732208252,-0.20236949622631073,1.5325590372085571,1.3959630727767944,1.8040226697921753,-2.194108486175537,-0.647762656211853,-2.059239387512207,0.06888886541128159,0.6780641078948975,0.991149365901947,-1.0975462198257446,1.6581777334213257,0.2732085883617401,-1.9402616024017334,0.21580533683300018,-0.35573258996009827,1.1072635650634766,-0.7557098269462585,-1.6963300704956055,-1.2795156240463257,-2.235518455505371,-0.06208488345146179,-0.6801131367683411,0.2481071949005127,0.13396532833576202,-1.6257972717285156,2.5188772678375244,0.1415959596633911,-0.6070190072059631,0.8979240655899048,0.5681516528129578,-2.242915391921997,-2.4373958110809326,1.0024187564849854,-1.6565985679626465,1.4943405389785767,2.1561102867126465,-0.10110655426979065,0.11524058133363724,0.4920940101146698,-1.2710343599319458,-1.7206403017044067,0.10799815505743027,-1.5769602060317993,0.7011739015579224,-0.06010157987475395,-0.4062437415122986,-3.275101900100708,2.6202011108398438,-2.766138792037964,-1.1685749292373657,0.6465867161750793,1.2499605417251587,1.4652019739151,-0.6625164747238159,-0.48261818289756775,-1.5922194719314575,-1.5025025606155396,-1.1281195878982544,-0.08819109201431274,0.36373329162597656,2.620305299758911,-1.083531141281128,0.4908381998538971,0.0050807977095246315,-0.5411491394042969,0.5606932640075684,-0.9003258347511292,-1.993841290473938,3.438889503479004,-0.9472923278808594,-0.6551120281219482,0.1005576029419899,-0.9483980536460876,-0.02797887846827507,-2.260687828063965,3.2903072834014893,2.3173770904541016,-0.6617642045021057,-1.1965746879577637,-2.0921072959899902,-1.7357310056686401,-0.6504987478256226,2.163367986679077,-1.5847132205963135,-1.6057922840118408,0.4983194172382355,-0.7526785731315613,0.39299464225769043,-1.2381923198699951,-3.139395236968994,-1.0650767087936401,-2.60221529006958,-1.7023253440856934,1.811111330986023,-3.213270664215088,-2.147937297821045,-0.052868567407131195,-0.6303042769432068,1.6844185590744019,-0.2928403317928314,2.2348885536193848,0.8247244358062744,-1.0630124807357788,0.9902276396751404,0.03813282400369644,-0.5186489820480347,1.2424767017364502,1.2286205291748047,-1.6118862628936768,0.6915154457092285,-1.0802488327026367,-0.15907877683639526,-3.0030198097229004,2.4331023693084717,-0.2317301332950592,2.430551767349243,-0.08720182627439499,-2.0055110454559326,0.438019335269928,-0.6722219586372375,-1.4325164556503296,-0.5742763876914978,0.8898707628250122,-2.43099045753479,-0.335904598236084,-2.0073189735412598,-0.21708530187606812,0.4404996931552887,-2.032231330871582,-2.2549684047698975,-0.07659411430358887,-1.0755385160446167,-0.7858057618141174,-0.5510126948356628,0.5994256138801575,1.9711450338363647,0.4925321042537689,-2.5050652027130127,-0.7808613181114197,-1.3894460201263428,-1.6202926635742188,-0.03387567400932312,1.5583646297454834,-0.6816010475158691,-1.8029435873031616,-2.014854669570923,0.8890435099601746,-0.4218033254146576,1.8174463510513306,2.703225612640381,-0.22231990098953247,0.312554270029068,-0.23625598847866058,0.0787573829293251,2.9520161151885986,0.5964034795761108,-0.3748820722103119,1.5865076780319214,3.0988869667053223,1.0156902074813843,3.3130042552948,-2.0430619716644287,-1.7309696674346924,0.47411298751831055,1.6862542629241943,-0.9407317042350769,-1.9190657138824463,-1.2086235284805298,5.040931701660156,-0.583728551864624,1.1199688911437988,0.791779637336731,-1.3828165531158447,-1.575979471206665,-1.998405933380127,-1.3766597509384155,-1.1811407804489136,-1.151943325996399,0.006403566803783178,1.4734033346176147,4.286351680755615,2.627664804458618,-1.520614504814148,-2.084470272064209,-0.11518644541501999,0.5108838677406311,-0.8282291293144226,-0.7447631359100342,1.6769565343856812,-1.3984565734863281,-1.418514609336853,0.955845296382904,-1.3638354539871216,0.5369453430175781,1.4470502138137817,-0.9245147705078125,-0.5236392021179199,0.28405511379241943,-1.0551655292510986,1.7718369960784912,-1.8971030712127686,0.6790949106216431,0.28430595993995667,-3.801440954208374,1.5542545318603516,-0.09691335260868073,-0.34584569931030273,-0.5042722225189209,-1.2672052383422852,0.8241684436798096,0.11497297883033752,-0.3144308030605316,-0.21601729094982147,0.8992171287536621,-1.3297710418701172,2.224773645401001,-2.0092644691467285,0.14390768110752106,-0.17719051241874695,-1.0556063652038574,0.7885048389434814,0.6811435222625732,-1.1353708505630493,-1.719990849494934,-1.8751188516616821,0.4188981056213379,0.07781344652175903,-0.15122902393341064,-0.33486348390579224,-0.9599186778068542,0.055006325244903564,1.0712202787399292,0.19061441719532013,-2.647200107574463,-2.675846576690674,0.3418501615524292,-0.6484015583992004,-0.6285313367843628,-0.3550724685192108,-0.7069703340530396,0.009392401203513145,0.6539811491966248,-0.02565702795982361,0.7409535646438599,-1.5501725673675537,-0.07617752254009247,0.8027605414390564,-0.3884088695049286,-0.9608986973762512,1.2158350944519043,-0.6226332783699036,0.6646681427955627,-1.128006100654602,-0.851121187210083,-0.2879316806793213,-1.1616331338882446,-1.0132975578308105,0.6712412238121033,0.3686419427394867,0.5408116579055786,1.3964802026748657,-1.4357242584228516,1.129378318786621,2.592041254043579,0.31314048171043396,0.09678589552640915,2.858612537384033,2.0723187923431396,0.3946373462677002,-0.8302331566810608,-0.33531007170677185,-1.8975175619125366,1.6779398918151855,5.489384174346924,0.3486611247062683,1.828619360923767,-1.3127517700195312,-4.002213954925537,-1.3649978637695312,1.0046809911727905,1.9173219203948975,2.5608320236206055,0.8414756655693054,-0.8392168283462524,-0.37019649147987366,1.074445128440857,0.27451521158218384,-1.3020107746124268,-0.08088192343711853,1.8318853378295898,-1.195597767829895,2.354233741760254,-0.7046956419944763,-0.26688098907470703,-1.6946488618850708,-2.422311782836914,2.0101521015167236,1.7649368047714233,2.239577531814575,-0.4986109137535095,-1.4017380475997925,0.5369886755943298,-3.996734380722046,-0.4783013164997101,1.0722835063934326,1.982378363609314,-0.14898549020290375,-2.1152045726776123,1.0740230083465576,-2.3614282608032227,0.156566321849823,0.5617358088493347,-1.6665329933166504,-1.3893972635269165,0.717297375202179,-0.6651942729949951,-0.8839163780212402,-2.2422170639038086,0.815780520439148,-1.8820335865020752,1.6953145265579224,0.004166479222476482,-0.48208844661712646,-0.9032986164093018,0.24993596971035004,1.442286491394043,1.5851515531539917,-2.1829795837402344,-0.2705077826976776,-1.5657390356063843,0.3484063148498535,-0.4535396695137024,0.43267622590065,1.7869923114776611,-0.9264467358589172,-1.1500595808029175,0.30823761224746704,-0.03402519226074219,1.0625625848770142,-0.816048264503479,-1.555187702178955,-0.7079960107803345,-0.669716477394104,0.8453078269958496,0.8115795850753784,-1.1497396230697632,0.14949075877666473,1.8230229616165161,-1.5350326299667358,-0.03316626697778702,-4.99915885925293,1.8838499784469604,-0.30436739325523376,-1.2039117813110352,-1.167963981628418,-1.1222655773162842,-2.7058145999908447,-2.1217339038848877,0.10698047280311584,-1.4446935653686523,-1.3494824171066284,-0.6578086018562317,-0.38879114389419556,0.7898747324943542,2.2797739505767822,-0.14050810039043427,0.8525408506393433,0.9603568911552429,-0.9657888412475586,-0.4313400089740753,0.3690187931060791,-3.9991071224212646,2.16176176071167,0.08401083946228027,-1.6584113836288452,-0.10639877617359161,-1.5702719688415527,-0.7791799306869507,-2.4562132358551025,2.3853108882904053,1.112945318222046,2.448380708694458,-0.3645411431789398,-2.2692973613739014,0.8287041783332825,0.9198565483093262,0.13798287510871887,0.6130715608596802,0.38751283288002014,0.30274727940559387,0.21978725492954254,0.9422662258148193,-1.4691814184188843,-0.15291662514209747,-1.9838416576385498,-0.29082170128822327,-2.435436725616455,-0.17080867290496826,-1.9335814714431763,-0.14177349209785461,-0.2947505712509155,0.9708448052406311,-0.5453130006790161,0.49645572900772095,0.7176185846328735,0.2272050529718399,-2.199305295944214,0.6816298961639404,1.8759571313858032,-2.2120308876037598,-0.9000421762466431,-0.30023378133773804,0.72688889503479,1.9651490449905396,0.023621410131454468,0.4983639121055603,-1.6832460165023804]},"forgetHidden":{"rows":20,"columns":20,"weights":[1.393149733543396,-0.7257075905799866,-0.06025749817490578,-0.3403698801994324,1.5249078273773193,-2.3920817375183105,0.29194390773773193,-1.1580493450164795,1.1397695541381836,-0.20301546156406403,2.0556628704071045,-2.716437339782715,1.8268020153045654,1.2517567873001099,-1.2230709791183472,1.3248282670974731,-4.4661149978637695,3.942476272583008,0.8949638605117798,-0.102027527987957,-1.7089250087738037,-1.9828646183013916,-1.1617804765701294,-1.7264424562454224,-0.4248729348182678,0.08538379520177841,0.7724486589431763,1.253086805343628,1.4677764177322388,-2.6325478553771973,1.0499414205551147,-0.5788589119911194,-3.0049169063568115,-0.7702292203903198,-1.8998713493347168,-0.6740204691886902,1.844856858253479,1.4092471599578857,-0.5693521499633789,0.307635635137558,1.8898426294326782,-0.22537490725517273,2.595784902572632,-0.6678230166435242,-0.8912879824638367,-1.851464867591858,-2.48205828666687,0.11623784154653549,-1.8742643594741821,2.107801914215088,-1.4291960000991821,0.005626428872346878,-2.101732015609741,-1.2617523670196533,-0.7192409634590149,-0.4126185178756714,0.015348770655691624,-2.024176836013794,-0.322936475276947,0.1669420748949051,0.6122348308563232,0.7249921560287476,-0.5105774998664856,2.259949207305908,0.5759305357933044,-0.40008264780044556,-3.9921844005584717,-2.7719526290893555,0.8317828178405762,2.0703814029693604,3.634673833847046,1.108267903327942,-4.108417987823486,-2.076287269592285,-0.10465104132890701,1.6184495687484741,-1.5522115230560303,0.9566770195960999,1.9778765439987183,1.9799288511276245,-2.1103663444519043,3.3233659267425537,-1.1338444948196411,1.0164209604263306,0.5945469737052917,-3.101760149002075,-1.4031264781951904,-0.4769519865512848,0.46264246106147766,-0.29682254791259766,2.2317216396331787,2.318920850753784,-0.23784077167510986,-1.93356192111969,2.2336480617523193,0.32464268803596497,-2.2466115951538086,-1.0904641151428223,0.37161532044410706,1.5725805759429932,-2.1106908321380615,0.775842010974884,-0.49946844577789307,-0.6631076335906982,1.274444818496704,1.9410459995269775,1.4359784126281738,1.7934445142745972,-0.3611084818840027,-0.2051607221364975,-0.33777105808258057,-2.3112082481384277,-0.5233191251754761,1.285581350326538,1.6916872262954712,2.858060359954834,-2.125343084335327,0.0029684375040233135,0.9773170948028564,1.04355788230896,-1.5008889436721802,-0.725288987159729,1.7519925832748413,-0.1267072558403015,0.17968331277370453,0.938084602355957,1.4403581619262695,-0.19592031836509705,0.5564525127410889,0.2737092077732086,0.5929596424102783,1.246897578239441,-0.22951020300388336,0.10917510092258453,-0.49433454871177673,-1.0112210512161255,-0.1909487396478653,-0.7945605516433716,0.3500850200653076,-0.6535728573799133,-4.39616060256958,-2.1438939571380615,5.778998374938965,-0.135747492313385,0.6020540595054626,6.6310625076293945,-2.4733376502990723,-2.183197498321533,-2.329692840576172,0.8171529173851013,-1.6615304946899414,-2.854069948196411,1.191803216934204,-2.9106011390686035,0.4125347137451172,1.2493165731430054,-5.957427024841309,-0.8768953084945679,-2.2406136989593506,6.479003429412842,-2.012894868850708,0.5422510504722595,-1.9332104921340942,1.0146647691726685,0.8884508609771729,-0.16618822515010834,-1.1255249977111816,-1.1246355772018433,-0.4748282730579376,-2.104980945587158,-1.741340160369873,0.10091998428106308,0.9945209622383118,0.5627239942550659,-1.2509198188781738,1.565304160118103,2.9789016246795654,2.941624641418457,1.1915919780731201,2.5382766723632812,-1.102278709411621,0.8743348717689514,-0.8699213266372681,1.012858271598816,3.825688600540161,1.8578518629074097,1.3442037105560303,-1.9533965587615967,-0.04361658915877342,0.48834481835365295,0.8739283680915833,-1.3927593231201172,0.1833174079656601,-1.6892415285110474,1.1161669492721558,-1.5697377920150757,0.555187463760376,4.565532684326172,5.378403186798096,2.720813035964966,-2.800654888153076,2.4098544120788574,-0.2982424199581146,-1.69935941696167,-0.9944160580635071,2.265784740447998,-2.0604159832000732,-0.7434544563293457,-1.7385762929916382,-0.29337799549102783,-0.39064934849739075,-1.2082078456878662,0.213687926530838,-0.8131365776062012,-1.1023389101028442,2.1672730445861816,-1.6355048418045044,2.251464366912842,-0.4808213710784912,1.1002768278121948,0.6561285853385925,-1.3037580251693726,0.7316053509712219,1.1108641624450684,1.728800892829895,0.7344114780426025,1.5540454387664795,-2.0759658813476562,2.0667662620544434,1.2282438278198242,0.1933472454547882,0.7797689437866211,-1.0458462238311768,-1.0278300046920776,1.6519855260849,-0.38594764471054077,-0.2563113868236542,-4.743494510650635,1.177538275718689,1.2728943824768066,2.553985357284546,-0.8169645667076111,2.1700918674468994,-3.2637131214141846,-2.1159281730651855,3.0107741355895996,2.4965341091156006,5.255122661590576,-1.7557021379470825,-1.1310267448425293,-2.2094295024871826,0.11703912913799286,1.9350638389587402,2.592958450317383,-2.6047942638397217,-0.2204844206571579,-2.7343475818634033,-0.2939826548099518,-0.573306143283844,2.8262174129486084,0.9386039972305298,1.3171119689941406,0.17201447486877441,0.7785183787345886,-0.19837072491645813,-1.3668113946914673,1.149859070777893,-0.504823625087738,0.4010467231273651,0.28715062141418457,-0.25943177938461304,1.1977578401565552,0.4784140884876251,0.21501871943473816,-2.567075252532959,-2.898625373840332,2.5203073024749756,0.48379677534103394,-2.5348153114318848,-0.2791612148284912,-6.123628616333008,1.1583880186080933,-1.9577901363372803,-1.290216326713562,3.4368655681610107,2.553950786590576,-3.856740713119507,-4.207010746002197,1.1118650436401367,3.508929491043091,0.9723846912384033,4.489441871643066,-1.584802269935608,-1.2394849061965942,4.009682655334473,-1.1740285158157349,0.292989045381546,-2.165689468383789,0.93039870262146,0.30757737159729004,-0.1220659390091896,0.47737234830856323,0.007882488891482353,-0.12172114849090576,-0.6162125468254089,-0.6671977639198303,0.3326742947101593,0.6027403473854065,-1.4339179992675781,-0.4438495337963104,-0.7242254614830017,0.0037540013436228037,-0.2064373642206192,1.5066007375717163,-0.8732452392578125,-1.7579150199890137,-0.34790515899658203,0.30999863147735596,-0.27542126178741455,-0.4950198531150818,3.377333879470825,0.43255171179771423,0.42738813161849976,-2.480360746383667,-4.416948318481445,0.7904521226882935,0.6177340149879456,1.1735225915908813,2.0512986183166504,-3.2933340072631836,-4.560376167297363,-0.667283296585083,-11.190725326538086,5.711544513702393,-3.3500702381134033,-2.947451114654541,4.840048789978027,-1.2539769411087036,0.3304436504840851,3.541888952255249,-1.500372052192688,-0.7154361009597778,2.01967716217041,0.7208356261253357,4.526320934295654,2.5941948890686035,2.0252816677093506,-3.8023252487182617,-1.1770617961883545,0.7817633152008057,3.6677966117858887,-1.628121018409729,-3.197190999984741,-2.3035783767700195,5.095602035522461,0.08582265675067902,1.1979001760482788,-3.0847842693328857,2.7259082794189453,2.094426393508911,2.3041021823883057,-0.3094976842403412,-1.0997039079666138,-0.502596378326416,-0.0072426083497703075,-0.4361329972743988,0.1779164969921112,0.5317960381507874,2.2352054119110107,-0.5506078004837036,0.0407632477581501,-1.1212643384933472,-0.5498023629188538,-1.0882713794708252,-1.3957972526550293,-0.7331704497337341,4.109399318695068,-0.11808029562234879,0.4255916476249695,1.0273300409317017,-2.0424647331237793,-1.5596652030944824,2.279682159423828,-2.4772696495056152,0.6316153407096863,2.220541477203369,0.7267756462097168,0.5664665102958679,-0.6638809442520142,0.12655863165855408,0.15958595275878906,1.050048828125,-1.0384823083877563,0.7976347804069519,1.497940182685852,-1.4819382429122925,0.4339389503002167,-0.34513548016548157,-0.010155067779123783,2.5215799808502197]},"forgetBias":{"rows":20,"columns":1,"weights":[0,0,0,0,0,0,0,0,0,0,0,0,0,0,0,0,0,0,0,0]},"outputMatrix":{"rows":20,"columns":38,"weights":[-0.3525932729244232,0.010299671441316605,0.08829809725284576,0.09507887810468674,-1.7701804637908936,1.1501041650772095,0.14012573659420013,0.6396510601043701,0.7853976488113403,-2.537163019180298,0.5120554566383362,-0.7606236338615417,-1.1098909378051758,2.4468700885772705,0.36077091097831726,-1.0095596313476562,-2.2320168018341064,3.022810459136963,0.8269777297973633,-1.008562684059143,1.3635022640228271,-1.4151990413665771,0.11216645687818527,1.5346134901046753,-2.155134916305542,2.454686403274536,-0.8999258279800415,1.8676575422286987,-0.5667613744735718,0.2710171937942505,-0.9885661005973816,-0.10645970702171326,-0.7644624710083008,-0.7015710473060608,-0.2668410539627075,-3.499359369277954,-2.078305959701538,-0.6755306720733643,-2.3741254806518555,3.1924829483032227,-0.8754829168319702,-0.5601775050163269,0.9618308544158936,1.6921793222427368,1.1280347108840942,0.006716758478432894,-0.5998680591583252,0.8204981088638306,-0.4646313786506653,-1.0909265279769897,-0.5246648192405701,0.1974553018808365,-1.1664283275604248,-1.5310032367706299,1.6316620111465454,3.896639347076416,0.6565502285957336,2.2753634452819824,-0.5875084400177002,-1.4667706489562988,-2.521939992904663,-1.1678099632263184,0.059788770973682404,-1.265096664428711,-0.5002895593643188,2.498429775238037,0.8749532103538513,-1.5661989450454712,0.010125797241926193,0.5109715461730957,1.3226981163024902,-0.9555610418319702,-1.7399566173553467,-2.1754066944122314,0.07305596023797989,1.0378139019012451,1.3973491191864014,2.5530407428741455,1.1315490007400513,1.1303529739379883,1.3716026544570923,0.29515340924263,-0.18974454700946808,-1.3028873205184937,-1.6637260913848877,1.3592511415481567,-4.389099597930908,-1.2450193166732788,-1.715710997581482,-2.49338960647583,-0.3714221119880676,-2.5868942737579346,-1.6894062757492065,1.4003703594207764,-1.6829452514648438,1.6853342056274414,-2.0577516555786133,-0.2825801372528076,0.16117382049560547,-0.8460307121276855,-1.5953497886657715,0.010466155596077442,-0.40769991278648376,1.5847136974334717,-0.6347602009773254,0.38594576716423035,0.48924267292022705,0.33903515338897705,-1.2372430562973022,-0.9608069658279419,-0.7741764783859253,2.602216958999634,1.9123332500457764,-0.5531256794929504,0.4661986827850342,-1.3744460344314575,-3.8390159606933594,2.292128324508667,1.3848806619644165,-3.200817584991455,2.497044086456299,-1.5274772644042969,-0.31499743461608887,-0.789519727230072,-0.04114663973450661,-0.9023511409759521,0.9340847134590149,-0.0021084584295749664,3.697579860687256,0.9297459721565247,1.0266133546829224,-0.9894528388977051,-2.046576499938965,-1.0271261930465698,-0.06623055040836334,2.7678468227386475,-0.4430641531944275,0.8102896213531494,-0.3182353973388672,-0.7819135785102844,1.4499231576919556,-1.6578279733657837,2.724724531173706,0.7068116664886475,1.2489370107650757,-0.7007771134376526,-0.9362433552742004,2.312272548675537,-0.05345232039690018,-0.32733461260795593,0.4846467971801758,2.238939046859741,2.2799739837646484,0.9609912633895874,0.3595104217529297,0.5156550407409668,0.1787528544664383,-4.053867816925049,1.3250863552093506,-0.5230247378349304,0.042217932641506195,-0.16370761394500732,-1.4156438112258911,-0.22107213735580444,-3.244069814682007,0.6285470724105835,2.548710346221924,-1.519248366355896,1.2973790168762207,-1.2062417268753052,0.48977673053741455,0.39552146196365356,-0.4044000208377838,2.1692938804626465,-1.7492790222167969,0.5815436840057373,0.038661058992147446,-2.206613779067993,-0.4452928602695465,-1.0938401222229004,1.1397762298583984,4.059721946716309,0.370500773191452,1.8332760334014893,-0.6639163494110107,-0.12561127543449402,-1.0170797109603882,1.4611083269119263,-0.6357334852218628,0.7241246700286865,-1.538691759109497,-0.4237492084503174,-0.865959882736206,-3.1373164653778076,0.9423463344573975,0.8656424283981323,-0.6978186368942261,-0.11459521949291229,-2.4348084926605225,0.9941398501396179,1.5608488321304321,0.6850778460502625,-1.1274720430374146,1.4672123193740845,-0.6781622767448425,1.1724159717559814,0.22606417536735535,2.1510519981384277,-0.8054589629173279,-0.5501957535743713,-1.1453548669815063,1.0726993083953857,-1.0912309885025024,1.187838077545166,0.15722323954105377,-1.877559781074524,-2.6032636165618896,0.2195039987564087,-2.0905115604400635,2.828566551208496,2.995089054107666,-1.106024980545044,-0.9368813037872314,-0.713616132736206,1.2126213312149048,-0.3661772906780243,-1.803605079650879,2.7941129207611084,-0.37230268120765686,-3.419645071029663,-1.6455687284469604,0.6357200145721436,3.0995845794677734,-0.6161675453186035,1.7804057598114014,1.5975210666656494,-1.979889988899231,3.1682214736938477,-0.8218926787376404,1.0748448371887207,1.76328444480896,-0.5222108960151672,-2.7557668685913086,-0.6381973028182983,1.775537371635437,-0.18164615333080292,0.2701706886291504,0.9867647886276245,1.2884447574615479,-0.5813751220703125,-0.27015742659568787,-1.3206595182418823,2.5465891361236572,-0.47446131706237793,1.0453307628631592,1.2410635948181152,1.1837109327316284,-0.9609865546226501,1.0460740327835083,-1.1170214414596558,0.45419690012931824,-1.492659568786621,-1.9325991868972778,0.44408923387527466,-1.0607099533081055,2.7012906074523926,1.2927504777908325,0.5101754069328308,3.0400142669677734,-1.1326221227645874,0.3324097990989685,0.681298017501831,-2.071284532546997,0.7616176605224609,-1.1900063753128052,-0.17967110872268677,-2.4215614795684814,0.7988768815994263,-0.9843174815177917,-1.0213444232940674,1.0057259798049927,-0.8520241975784302,-0.640443742275238,-2.0596346855163574,0.4363623261451721,0.6839679479598999,-2.314012050628662,-0.2621408700942993,3.6064462661743164,-1.0012755393981934,-2.098512887954712,-0.6660878658294678,-0.8310834765434265,1.9458060264587402,1.275287389755249,-0.14411714673042297,1.2928836345672607,-3.1557512283325195,-3.843320846557617,2.168579339981079,-0.05677006393671036,3.1201138496398926,2.36980938911438,-0.5387107729911804,0.6702643036842346,1.6380188465118408,3.837390899658203,-0.2573017179965973,-2.659799337387085,1.5167173147201538,0.8761202096939087,0.5080941319465637,-0.8181431889533997,-0.14830119907855988,-2.0921196937561035,0.3930402994155884,-0.32386720180511475,-1.5088568925857544,-3.063645124435425,-3.150346517562866,-3.343656301498413,0.9111638069152832,1.255521535873413,-0.9161676168441772,-0.7462714314460754,-2.052994728088379,-0.305727481842041,-0.39689549803733826,-2.090481996536255,1.052331566810608,-0.006391824688762426,0.9405055642127991,-0.08285210281610489,2.8415277004241943,-1.493430733680725,-1.1407097578048706,-1.3060998916625977,-2.057871103286743,1.4538235664367676,1.580140471458435,1.3071798086166382,-2.167384624481201,0.1920795887708664,1.1729092597961426,-0.20052453875541687,0.8046665787696838,-2.684298038482666,-0.7711763381958008,1.982132911682129,1.4719542264938354,-0.2136729508638382,0.05144910886883736,0.3015857934951782,2.8878698348999023,-0.9798635840415955,1.2057489156723022,2.0533087253570557,1.5157285928726196,1.768013834953308,-0.27087846398353577,-2.055657148361206,-0.6422495245933533,1.1278530359268188,3.957385778427124,-3.427764415740967,0.39176303148269653,-0.15421734750270844,-1.628464937210083,-0.28225332498550415,-1.4294229745864868,2.325011730194092,1.2295746803283691,3.0146188735961914,-0.17044328153133392,1.9122072458267212,2.1369824409484863,0.11055247485637665,-2.2902443408966064,-1.734889030456543,3.274660110473633,-2.5775625705718994,1.8205718994140625,-2.0172879695892334,0.5812003016471863,-1.289580225944519,0.3389987051486969,1.3072773218154907,3.3029110431671143,2.471017837524414,1.6360574960708618,0.5549351572990417,-0.2082306146621704,-0.17064794898033142,2.6153724193573,-0.06434734910726547,2.580592393875122,0.6462434530258179,2.5932552814483643,-0.5293198227882385,-2.0696604251861572,0.2162591516971588,1.4130529165267944,-3.932112693786621,1.895799994468689,1.6267547607421875,-0.4963498115539551,-0.6335897445678711,-1.961000680923462,1.3643585443496704,-0.49453386664390564,-0.051789529621601105,1.4138339757919312,1.801877737045288,0.9788307547569275,-1.388985514640808,-2.605100631713867,-4.141595840454102,1.1201637983322144,1.30401611328125,-0.9080731272697449,-0.45207956433296204,-0.9293158650398254,-3.303954839706421,-0.6947038769721985,0.9779428243637085,-0.23851823806762695,1.3960257768630981,-1.4645313024520874,1.1828850507736206,0.327216774225235,2.3569111824035645,1.11729896068573,0.136094868183136,-0.391355961561203,1.4832249879837036,1.1621698141098022,1.2260286808013916,-2.4280121326446533,0.1443399041891098,-1.8429464101791382,-0.951468825340271,-0.4551966190338135,0.21204207837581635,1.6649885177612305,4.2858076095581055,-0.19586680829524994,0.7618889808654785,0.19066934287548065,-4.26765775680542,0.26002323627471924,0.3337355852127075,-1.651822566986084,0.9910700917243958,-2.2719783782958984,-0.7242391109466553,-0.02868768572807312,0.21720553934574127,2.071889638900757,-1.8433421850204468,-1.2201822996139526,-2.264310121536255,0.10854985564947128,2.440732955932617,1.46365487575531,0.6052542328834534,-4.26894998550415,2.5798609256744385,-1.606723666191101,-2.4922585487365723,1.6972166299819946,-1.8856260776519775,1.7386935949325562,-1.8031179904937744,3.124208688735962,-3.8131744861602783,-1.2401012182235718,-0.8940322995185852,1.2218037843704224,0.14103451371192932,1.446051836013794,-0.12765927612781525,0.951047956943512,1.790174961090088,-1.3604341745376587,0.8116511702537537,-1.4387229681015015,-1.283707618713379,0.8438861966133118,-2.2884650230407715,-3.3074193000793457,-0.6912408471107483,-2.916228771209717,-1.148755669593811,-2.1259970664978027,-1.1134607791900635,-1.4687771797180176,-0.50472092628479,-0.5252320170402527,2.1248886585235596,2.8533482551574707,-1.8539798259735107,0.7978991270065308,0.10236792266368866,1.03016996383667,0.7850710153579712,1.9323961734771729,1.3095625638961792,0.11339046061038971,-1.5901128053665161,0.5812318921089172,0.5530979037284851,0.9101607799530029,-2.255988121032715,-1.568420171737671,-0.5346978306770325,1.0603351593017578,-1.3309745788574219,-0.19431160390377045,3.2330715656280518,-0.7668235898017883,0.03218882903456688,-0.6654411554336548,0.26167845726013184,-1.1645735502243042,-0.6374068260192871,-0.6486749649047852,-0.8604835867881775,0.29404735565185547,-0.21430793404579163,-2.714552640914917,-1.0031388998031616,0.8246434926986694,-0.052677761763334274,1.2598344087600708,2.1195900440216064,0.24302972853183746,1.0820878744125366,0.14803346991539001,0.6094779372215271,-0.47688621282577515,-0.3470418155193329,1.6822214126586914,0.7541466951370239,-0.2548190951347351,1.2789547443389893,0.6045714020729065,-2.3642125129699707,2.8758599758148193,4.100061416625977,-3.5382301807403564,-5.437912940979004,-0.4651489555835724,-0.3064913749694824,1.6244570016860962,0.616248607635498,-1.2853153944015503,0.6783736348152161,-1.3860067129135132,0.22862888872623444,0.785885214805603,0.9002465605735779,-3.126600742340088,1.1590877771377563,-1.0001424551010132,-0.8330701589584351,0.268989235162735,1.242604374885559,0.8120689392089844,1.707228422164917,-0.005196747370064259,-1.076515555381775,-0.468779593706131,-0.3653634786605835,-2.3772828578948975,0.517991840839386,0.6061089038848877,-0.044114965945482254,0.41324591636657715,-0.09740597754716873,0.791412353515625,1.4742567539215088,1.2246311902999878,0.8669734001159668,3.6749608516693115,-0.02672390639781952,-0.24848000705242157,0.18272757530212402,2.210667371749878,-0.8006353974342346,-0.7108660340309143,1.9815161228179932,-3.1710898876190186,0.011148643679916859,-0.9377865195274353,4.524507522583008,-0.7024082541465759,0.15372566878795624,0.9513154625892639,-0.6602121591567993,-1.2615755796432495,2.546633720397949,-0.6482061147689819,0.18116240203380585,0.6516477465629578,2.7260818481445312,0.12999920547008514,-1.2671427726745605,5.019924163818359,-0.40672948956489563,0.6873756051063538,2.0846846103668213,-2.9053239822387695,1.4937044382095337,0.6914589405059814,-3.613865613937378,-0.9682432413101196,-1.126434564590454,-0.9259205460548401,-0.41811537742614746,0.7375001311302185,-0.10701802372932434,-1.7239468097686768,-1.605974555015564,1.2597274780273438,1.4629600048065186,-1.113654375076294,0.2805302143096924,-1.6204017400741577,-0.514639675617218,0.365715354681015,3.916369676589966,0.04123377799987793,0.9023996591567993,1.681824803352356,-0.28603145480155945,0.1572425216436386,-0.45868420600891113,-3.3561222553253174,0.4974069595336914,-0.8585056066513062,-1.708067774772644,-0.12496423721313477,1.3263013362884521,0.9150609374046326,1.9688560962677002,-0.05608940124511719,-2.7617430686950684,-0.3786494731903076,0.09371978044509888,0.6794228553771973,2.921663284301758,4.444620609283447,-1.253651738166809,0.14573092758655548,-1.8268646001815796,2.1379363536834717,-2.8403100967407227,1.2183719873428345,1.1887856721878052,-0.44901761412620544,-0.693933367729187,-1.682293176651001,1.1304261684417725,-0.9447999596595764,1.1551049947738647,0.54498690366745,0.34728139638900757,-0.5207580924034119,-0.10950318723917007,-0.5204535126686096,0.6945438385009766,0.08990070968866348,1.220095157623291,1.7579758167266846,-1.4170233011245728,-2.308741331100464,2.2475883960723877,-3.1771886348724365,-0.10161048918962479,-0.33155614137649536,0.08479226380586624,0.6794835329055786,-1.1296526193618774,2.397580146789551,1.5673589706420898,-0.49882179498672485,-0.48467880487442017,2.6432316303253174,-2.0535569190979004,-1.012363076210022,2.8475852012634277,-0.7798465490341187,-1.7841061353683472,-0.556755542755127,0.1437675952911377,-0.5956233739852905,-0.826010525226593,0.4799391031265259,1.3072433471679688,1.3792269229888916,1.1359026432037354,-1.036665916442871,-1.5810656547546387,0.30628347396850586,-0.504584789276123,0.7400496006011963,-0.791963517665863,0.8947368264198303,3.1634585857391357,-1.1327643394470215,3.4699957370758057,0.18645183742046356,1.299332618713379,0.7028452754020691,-1.9802498817443848,-1.2060601711273193,-0.6650859117507935,0.07510633021593094,-1.4405927658081055,1.3586736917495728,1.048019528388977,0.9285027384757996,-1.5212585926055908,-0.747194766998291,-0.7244954705238342,-1.962130069732666,0.32615798711776733,1.2199536561965942,-0.07830300182104111,1.1382737159729004,0.37577658891677856,2.5504071712493896,0.5881671905517578,2.144296646118164,-1.0492885112762451,2.499498128890991,0.7685115933418274,2.0987000465393066,0.8959096074104309,1.92458176612854,0.9963628649711609,-2.0585601329803467,-1.4107530117034912,1.6432713270187378,-1.4004440307617188,0.37330397963523865,-1.5361474752426147,1.202908992767334,-4.255341529846191,-2.766923427581787,1.3507946729660034,-0.27597901225090027,0.1930457055568695,1.2218170166015625,1.795823097229004,0.9561688899993896,2.9803946018218994,-2.0581612586975098,-2.542133092880249,3.0803887844085693]},"outputHidden":{"rows":20,"columns":20,"weights":[5.313737869262695,0.14490321278572083,-1.2154302597045898,-1.8491100072860718,-0.403720498085022,-3.18786358833313,1.877655267715454,-1.6711543798446655,-2.3371357917785645,0.14097480475902557,-2.7607531547546387,-6.22415018081665,3.241034984588623,-0.5337767004966736,-2.008695125579834,-1.5053858757019043,-3.6659774780273438,1.8359922170639038,1.2722874879837036,-2.9131789207458496,1.8296809196472168,-1.2710576057434082,-1.3529027700424194,-0.29723215103149414,-2.3279294967651367,-1.701237678527832,-3.155698299407959,3.0003018379211426,1.8860466480255127,-1.5614540576934814,-1.782757043838501,0.07050953805446625,-1.4316109418869019,2.3256750106811523,-2.221616268157959,0.7550514936447144,2.1416542530059814,-1.1475856304168701,-0.8230566382408142,-2.7863306999206543,-0.11620286852121353,-0.05626998469233513,3.049198627471924,-0.36617088317871094,-0.7225896716117859,0.8942646384239197,0.9125129580497742,1.3436663150787354,-3.2597055435180664,-0.3575317859649658,0.8451897501945496,-2.8846850395202637,-5.1000871658325195,2.6833837032318115,-0.25217947363853455,-0.08425649255514145,-2.3627219200134277,2.1517751216888428,0.48452967405319214,1.2578272819519043,1.5007357597351074,-6.165016174316406,-0.01964869722723961,0.24664564430713654,-2.4619956016540527,2.389431953430176,2.139019727706909,0.8281157612800598,-2.3846547603607178,0.5848056674003601,0.011550609953701496,-1.4894963502883911,-2.0444514751434326,-0.04665237292647362,1.4740954637527466,-2.360168218612671,2.697573184967041,2.475560426712036,-0.58893221616745,5.798802375793457,4.583896160125732,1.016860008239746,0.33479222655296326,1.1851123571395874,4.819345474243164,-1.6726696491241455,-1.6038647890090942,-5.186091899871826,-1.2684799432754517,2.3273472785949707,4.794074058532715,-2.471357822418213,-0.8798442482948303,0.43125951290130615,3.1414620876312256,-4.340548515319824,-1.350533366203308,0.6715585589408875,2.8758199214935303,-1.0980418920516968,4.248345851898193,2.843475341796875,9.829447746276855,2.200589895248413,-0.5804216861724854,-2.6169302463531494,1.4190293550491333,-1.5707783699035645,2.857362747192383,-6.582205772399902,-2.138028144836426,-3.128676652908325,4.9468159675598145,6.07594633102417,2.50003719329834,-0.31176286935806274,-0.9017766118049622,0.042094141244888306,-4.080193996429443,0.06871899962425232,-2.39033579826355,-1.329326868057251,-1.728318214416504,-3.0861282348632812,-1.0247111320495605,1.0583734512329102,-0.29035499691963196,0.07326003164052963,-0.794883668422699,-1.528481364250183,1.7178473472595215,0.1264193207025528,0.3433956503868103,-0.8944832682609558,-0.772031307220459,-1.3899434804916382,0.851275622844696,-0.23986588418483734,-0.3382626175880432,-1.5873349905014038,1.325899362564087,1.1011664867401123,0.050263408571481705,1.343446969985962,2.0208332538604736,1.5316110849380493,-0.4479556977748871,-4.152139186859131,1.2691742181777954,3.1953723430633545,4.873892307281494,-3.215886116027832,-1.621476173400879,-2.579922914505005,0.42500218749046326,0.4556787610054016,-1.069523811340332,-0.10523311793804169,0.5409209132194519,1.7382370233535767,-2.4831762313842773,0.0654270201921463,-0.9172099232673645,1.167840600013733,-0.004925804678350687,-0.6555200815200806,0.1275867223739624,-3.7896347045898438,-0.965305507183075,2.3591806888580322,4.132455825805664,0.6775059103965759,-1.1562381982803345,-2.817762613296509,1.3509148359298706,-1.6200933456420898,2.309990167617798,-1.6798371076583862,2.2275521755218506,-2.446181058883667,4.078367233276367,-1.3028488159179688,-0.4453180134296417,-0.47626006603240967,2.195091485977173,2.8538215160369873,1.5114761590957642,-1.0480366945266724,-0.3017784357070923,-2.413303852081299,-2.293256998062134,-3.2860004901885986,5.150504112243652,-1.9956974983215332,-1.6446110010147095,-4.0439372062683105,-2.7238364219665527,5.555687427520752,2.2114036083221436,-0.42336148023605347,1.8582427501678467,-1.8393843173980713,2.160933017730713,-2.8689382076263428,3.4299702644348145,-3.3164799213409424,-4.254821300506592,-0.6537674069404602,4.412560939788818,1.584372878074646,0.7740393877029419,-3.137728452682495,4.270832061767578,2.8229942321777344,0.6218001246452332,0.866555392742157,-1.8419638872146606,-1.113107442855835,2.3785295486450195,-7.337308883666992,-1.4770160913467407,-1.613207459449768,-4.1658735275268555,2.1704182624816895,0.8441669940948486,-0.07862339913845062,4.526024341583252,-3.073352098464966,2.475299596786499,3.761380195617676,1.6267054080963135,4.221139430999756,-0.9729719161987305,-2.0606892108917236,-2.24511981010437,-2.0133371353149414,1.6511598825454712,-2.0543041229248047,0.7029547691345215,-8.900184631347656,2.8418564796447754,-1.715438723564148,-4.0096588134765625,-2.585150718688965,-2.1713316440582275,-2.8053691387176514,-5.0272698402404785,-0.5035064816474915,1.0204356908798218,-2.578214168548584,1.9480044841766357,1.4382885694503784,-3.89575457572937,0.44475430250167847,-2.7763500213623047,0.6449496150016785,1.7610148191452026,2.8588716983795166,3.1778345108032227,-1.5089956521987915,-4.948018550872803,-0.9853615164756775,0.24031290411949158,0.03395071625709534,1.2195723056793213,4.172606945037842,-2.5253689289093018,-2.8785057067871094,-2.9997920989990234,-9.773767471313477,-0.6083158254623413,-0.1772712916135788,-0.03335069864988327,1.4662275314331055,-4.299549579620361,-3.6990227699279785,4.04655122756958,0.9036693572998047,0.30802178382873535,8.353544235229492,-1.6116197109222412,0.013150522485375404,-8.081585884094238,2.2654597759246826,-0.49119752645492554,5.14810037612915,-3.502957582473755,-0.19724129140377045,4.126546382904053,-2.8619468212127686,-0.6260090470314026,0.47955751419067383,0.05805099755525589,-1.055471658706665,-0.3131972551345825,0.7270885705947876,-0.37818005681037903,-5.545767784118652,3.690186023712158,2.1468818187713623,5.114621639251709,-0.6071164011955261,-1.7457921504974365,2.197584867477417,-2.5494229793548584,-4.505645751953125,0.6732378602027893,0.7622240781784058,-4.480352401733398,-1.2440519332885742,-2.253904342651367,0.5608504414558411,2.3908557891845703,-1.6486135721206665,1.9117392301559448,-3.1476919651031494,0.02807142771780491,3.5901265144348145,1.3209760189056396,-6.136326313018799,-1.1586716175079346,-1.7282110452651978,-2.1451423168182373,3.4676499366760254,3.0916545391082764,-3.613889217376709,-4.236145973205566,3.216834783554077,6.047914981842041,-2.6386377811431885,-2.808378219604492,5.446403503417969,-5.145561218261719,-2.2553656101226807,1.5010406970977783,2.4510927200317383,-2.384718894958496,-4.4633564949035645,-3.3897695541381836,-6.038867473602295,-0.7689869403839111,0.46719226241111755,-3.7714500427246094,-2.240601062774658,-0.9052625298500061,-3.0963053703308105,0.6451934576034546,1.5257667303085327,-0.7810027599334717,-2.3663651943206787,-3.210953950881958,0.46494626998901367,-0.02382487989962101,2.8624305725097656,0.6318168640136719,-1.1211191415786743,2.866252899169922,-2.2445051670074463,-4.5338826179504395,0.5697195529937744,4.970664024353027,3.106443405151367,-0.8366180062294006,1.2656643390655518,-1.59712815284729,-2.5768983364105225,-5.193088531494141,-0.9755681157112122,-1.5042309761047363,2.2079172134399414,2.0742146968841553,-3.1207611560821533,5.74299430847168,1.1022194623947144,-1.1901828050613403,1.5973209142684937,-2.405618667602539,4.455108165740967,1.3776726722717285,0.7570644617080688,0.9160447716712952,-2.96867036819458,-2.374619483947754,-1.8418664932250977,1.1218239068984985,1.7225395441055298,-0.8299401998519897,3.509321451187134,-0.8861536383628845,0.13751408457756042,-0.998455822467804,2.0483458042144775,-2.1463918685913086,0.5246991515159607,0.4141255021095276,-2.6325843334198,-2.092754364013672,-1.961233377456665,0.9955207705497742,-1.142758846282959]},"outputBias":{"rows":20,"columns":1,"weights":[-1.4119133949279785,-1.2684544324874878,-0.4353557229042053,-1.812704086303711,-0.890291154384613,0.7422828078269958,-2.2618603706359863,-0.35381588339805603,-0.03028348833322525,-0.9126586318016052,-0.39898890256881714,-0.13565418124198914,-1.9927740097045898,-1.063609004020691,-0.2148181051015854,-0.6153432726860046,-0.42009982466697693,-0.33573073148727417,-2.316756010055542,-2.029730796813965]},"cellActivationMatrix":{"rows":20,"columns":38,"weights":[-0.6825771331787109,-2.129786252975464,0.43609416484832764,1.4681124687194824,0.44723397493362427,-1.5222193002700806,1.0360547304153442,0.15287160873413086,1.205020546913147,1.3908145427703857,0.05418432876467705,0.5230063199996948,0.02574281394481659,-0.7290066480636597,-0.665437638759613,-0.5611084699630737,-0.3468589782714844,2.35027813911438,2.499786376953125,2.172182321548462,0.3671724498271942,-2.6266720294952393,-1.5995391607284546,-0.47300955653190613,-1.1299124956130981,-0.9022442698478699,-0.06451006978750229,1.6734793186187744,0.827942967414856,1.4150781631469727,0.07185782492160797,0.15026238560676575,1.0513617992401123,2.032817840576172,-0.3087598383426666,-1.3128870725631714,-0.4008113443851471,0.7542822360992432,-1.1822731494903564,2.296160936355591,0.6576410531997681,0.38052693009376526,1.4416273832321167,